svm_type c_svc
kernel_type linear
nr_class 2
total_sv 193
rho -17.8295
label 0 1
nr_sv 94 99
SV
0.1471200332889389 1:0.33277869 2:0.33277869 3:0.33277869 4:0.33277869 5:0.33277869 6:0.33277869 7:0.33277869 8:0.33277869 9:0.33277869 10:0.36385939 11:0.28161409 12:0.18491648 13:0.29749319 14:0.36385939 15:0.36385939 16:0.36385939 17:0.36385939 18:0.36385939 19:0.21486324 20:0.17562829 21:0.36240619 22:0.36240619 23:0.36240619 24:0.36240619 25:0.36240619 26:0.36240619 27:0.36240619 28:0.31601995 29:0.33873478 30:0.30587295 31:0.33873478 32:0.33873478 33:0.33873478 34:0.33873478 35:0.33873478 36:0.33873478 37:0.33277869 38:0.33277869 39:0.33277869 40:0.33277869 41:0.33277869 42:0.33277869 43:0.33277869 44:0.33277869 45:0.33277869 46:0.33615097 47:0.33615097 48:0.33615097 49:0.3044036 50:0.33615097 51:0.33615097 52:0.33615097 53:0.33615097 54:0.33615097 55:0.34309274 56:0.23663162 57:0.34145147 58:0.34309274 59:0.34309274 60:0.34309274 61:0.34309274 62:0.34309274 63:0.34309274 64:0.33277869 65:0.33277869 66:0.33277869 67:0.33277869 68:0.33277869 69:0.33277869 70:0.33277869 71:0.33277869 72:0.33277869 73:0.32033378 74:0.33979627 75:0.33979627 76:0.2928493 77:0.33979627 78:0.33979627 79:0.33979627 80:0.33979627 81:0.33979627 82:0.33277869 83:0.33277869 84:0.33277869 85:0.33277869 86:0.33277869 87:0.33277869 88:0.33277869 89:0.33277869 90:0.33277869 91:0.33277869 92:0.33277869 93:0.33277869 94:0.33277869 95:0.33277869 96:0.33277869 97:0.33277869 98:0.33277869 99:0.33277869 100:0.29643282 101:0.33703861 102:0.33703861 103:0.33703861 104:0.33703861 105:0.33703861 106:0.33703861 107:0.33703861 108:0.33703861 109:0.34482434 110:0.20557645 111:0.22490552 112:0.24095219 113:0.38115248 114:0.38115248 115:0.38115248 116:0.38115248 117:0.38115248 118:0.33277869 119:0.33277869 120:0.33277869 121:0.33277869 122:0.33277869 123:0.33277869 124:0.33277869 125:0.33277869 126:0.33277869 127:0.34243733 128:0.34243733 129:0.24181013 130:0.34243733 131:0.34243733 132:0.34243733 133:0.34243733 134:0.34243733 135:0.34243733 136:0.35391602 137:0.24926095 138:0.23986949 139:0.35391602 140:0.35391602 141:0.35391602 142:0.35391602 143:0.35391602 144:0.35391602 145:0.36385939 146:0.28161409 147:0.18491648 148:0.29749319 149:0.36385939 150:0.36385939 151:0.36385939 152:0.36385939 153:0.36385939 154:0.21486324 155:0.17562829 156:0.36240619 157:0.36240619 158:0.36240619 159:0.36240619 160:0.36240619 161:0.36240619 162:0.36240619 163:0.31601995 164:0.33873478 165:0.30587295 166:0.33873478 167:0.33873478 168:0.33873478 169:0.33873478 170:0.33873478 171:0.33873478 172:0.33277869 173:0.33277869 174:0.33277869 175:0.33277869 176:0.33277869 177:0.33277869 178:0.33277869 179:0.33277869 180:0.33277869 181:0.33615097 182:0.33615097 183:0.33615097 184:0.3044036 185:0.33615097 186:0.33615097 187:0.33615097 188:0.33615097 189:0.33615097 190:0.34309274 191:0.23663162 192:0.34145147 193:0.34309274 194:0.34309274 195:0.34309274 196:0.34309274 197:0.34309274 198:0.34309274 199:0.33277869 200:0.33277869 201:0.33277869 202:0.33277869 203:0.33277869 204:0.33277869 205:0.33277869 206:0.33277869 207:0.33277869 208:0.33277869 209:0.33277869 210:0.33277869 211:0.33277869 212:0.33277869 213:0.33277869 214:0.33277869 215:0.33277869 216:0.33277869 217:0.33277869 218:0.33277869 219:0.33277869 220:0.33277869 221:0.33277869 222:0.33277869 223:0.33277869 224:0.33277869 225:0.33277869 226:0.33277869 227:0.33277869 228:0.33277869 229:0.33277869 230:0.33277869 231:0.33277869 232:0.33277869 233:0.33277869 234:0.33277869 235:0.29643282 236:0.33703861 237:0.33703861 238:0.33703861 239:0.33703861 240:0.33703861 241:0.33703861 242:0.33703861 243:0.33703861 244:0.33277869 245:0.33277869 246:0.33277869 247:0.33277869 248:0.33277869 249:0.33277869 250:0.33277869 251:0.33277869 252:0.33277869 253:0.33277869 254:0.33277869 255:0.33277869 256:0.33277869 257:0.33277869 258:0.33277869 259:0.33277869 260:0.33277869 261:0.33277869 262:0.34243733 263:0.34243733 264:0.24181013 265:0.34243733 266:0.34243733 267:0.34243733 268:0.34243733 269:0.34243733 270:0.34243733 271:0.35391602 272:0.24926095 273:0.23986949 274:0.35391602 275:0.35391602 276:0.35391602 277:0.35391602 278:0.35391602 279:0.35391602 280:0.34253877 281:0.34253877 282:0.28341967 283:0.34253877 284:0.34253877 285:0.34253877 286:0.34253877 287:0.34253877 288:0.30809283 289:0.21486324 290:0.17562829 291:0.36240619 292:0.36240619 293:0.36240619 294:0.36240619 295:0.36240619 296:0.36240619 297:0.36240619 298:0.31601995 299:0.33873478 300:0.30587295 301:0.33873478 302:0.33873478 303:0.33873478 304:0.33873478 305:0.33873478 306:0.33873478 307:0.33277869 308:0.33277869 309:0.33277869 310:0.33277869 311:0.33277869 312:0.33277869 313:0.33277869 314:0.33277869 315:0.33277869 316:0.33431685 317:0.32018363 318:0.33431685 319:0.33431685 320:0.33431685 321:0.33431685 322:0.33431685 323:0.33431685 324:0.33431685 325:0.34309274 326:0.23663162 327:0.34145147 328:0.34309274 329:0.34309274 330:0.34309274 331:0.34309274 332:0.34309274 333:0.34309274 334:0.33277869 335:0.33277869 336:0.33277869 337:0.33277869 338:0.33277869 339:0.33277869 340:0.33277869 341:0.33277869 342:0.33277869 343:0.33277869 344:0.33277869 345:0.33277869 346:0.33277869 347:0.33277869 348:0.33277869 349:0.33277869 350:0.33277869 351:0.33277869 352:0.336743 353:0.336743 354:0.29911339 355:0.336743 356:0.336743 357:0.336743 358:0.336743 359:0.336743 360:0.336743 361:0.33277869 362:0.33277869 363:0.33277869 364:0.33277869 365:0.33277869 366:0.33277869 367:0.33277869 368:0.33277869 369:0.33277869 370:0.29643282 371:0.33703861 372:0.33703861 373:0.33703861 374:0.33703861 375:0.33703861 376:0.33703861 377:0.33703861 378:0.33703861 379:0.33277869 380:0.33277869 381:0.33277869 382:0.33277869 383:0.33277869 384:0.33277869 385:0.33277869 386:0.33277869 387:0.33277869 388:0.33277869 389:0.33277869 390:0.33277869 391:0.33277869 392:0.33277869 393:0.33277869 394:0.33277869 395:0.33277869 396:0.33277869 397:0.34243733 398:0.34243733 399:0.24181013 400:0.34243733 401:0.34243733 402:0.34243733 403:0.34243733 404:0.34243733 405:0.34243733 406:0.35391602 407:0.24926095 408:0.23986949 409:0.35391602 410:0.35391602 411:0.35391602 412:0.35391602 413:0.35391602 414:0.35391602 415:0.34253877 416:0.34253877 417:0.28341967 418:0.34253877 419:0.34253877 420:0.34253877 421:0.34253877 422:0.34253877 423:0.30809283 424:0.33277869 425:0.33277869 426:0.33277869 427:0.33277869 428:0.33277869 429:0.33277869 430:0.33277869 431:0.33277869 432:0.33277869 433:0.31601995 434:0.33873478 435:0.30587295 436:0.33873478 437:0.33873478 438:0.33873478 439:0.33873478 440:0.33873478 441:0.33873478 442:0.33277869 443:0.33277869 444:0.33277869 445:0.33277869 446:0.33277869 447:0.33277869 448:0.33277869 449:0.33277869 450:0.33277869 451:0.33431685 452:0.32018363 453:0.33431685 454:0.33431685 455:0.33431685 456:0.33431685 457:0.33431685 458:0.33431685 459:0.33431685 460:0.33277869 461:0.33277869 462:0.33277869 463:0.33277869 464:0.33277869 465:0.33277869 466:0.33277869 467:0.33277869 468:0.33277869 469:0.33277869 470:0.33277869 471:0.33277869 472:0.33277869 473:0.33277869 474:0.33277869 475:0.33277869 476:0.33277869 477:0.33277869 478:0.33277869 479:0.33277869 480:0.33277869 481:0.33277869 482:0.33277869 483:0.33277869 484:0.33277869 485:0.33277869 486:0.33277869 487:0.336743 488:0.336743 489:0.29911339 490:0.336743 491:0.336743 492:0.336743 493:0.336743 494:0.336743 495:0.336743 496:0.33277869 497:0.33277869 498:0.33277869 499:0.33277869 500:0.33277869 501:0.33277869 502:0.33277869 503:0.33277869 504:0.33277869 505:0.29643282 506:0.33703861 507:0.33703861 508:0.33703861 509:0.33703861 510:0.33703861 511:0.33703861 512:0.33703861 513:0.33703861 514:0.33277869 515:0.33277869 516:0.33277869 517:0.33277869 518:0.33277869 519:0.33277869 520:0.33277869 521:0.33277869 522:0.33277869 523:0.33277869 524:0.33277869 525:0.33277869 526:0.33277869 527:0.33277869 528:0.33277869 529:0.33277869 530:0.33277869 531:0.33277869 532:0.33277869 533:0.33277869 534:0.33277869 535:0.33277869 536:0.33277869 537:0.33277869 538:0.33277869 539:0.33277869 540:0.33277869 541:0.35391602 542:0.24926095 543:0.23986949 544:0.35391602 545:0.35391602 546:0.35391602 547:0.35391602 548:0.35391602 549:0.35391602 550:0.34253877 551:0.34253877 552:0.28341967 553:0.34253877 554:0.34253877 555:0.34253877 556:0.34253877 557:0.34253877 558:0.30809283 559:0.33277869 560:0.33277869 561:0.33277869 562:0.33277869 563:0.33277869 564:0.33277869 565:0.33277869 566:0.33277869 567:0.33277869 568:0.34524551 569:0.34524551 570:0.30505651 571:0.26292557 572:0.34524551 573:0.34524551 574:0.34524551 575:0.34524551 576:0.34524551 577:0.33277869 578:0.33277869 579:0.33277869 580:0.33277869 581:0.33277869 582:0.33277869 583:0.33277869 584:0.33277869 585:0.33277869 586:0.33431685 587:0.32018363 588:0.33431685 589:0.33431685 590:0.33431685 591:0.33431685 592:0.33431685 593:0.33431685 594:0.33431685 595:0.33277869 596:0.33277869 597:0.33277869 598:0.33277869 599:0.33277869 600:0.33277869 601:0.33277869 602:0.33277869 603:0.33277869 604:0.19604039 605:0.14178459 606:0.18307282 607:0.40739504 608:0.40739504 609:0.40739504 610:0.40739504 611:0.40739504 612:0.27207789 613:0.33277869 614:0.33277869 615:0.33277869 616:0.33277869 617:0.33277869 618:0.33277869 619:0.33277869 620:0.33277869 621:0.33277869 622:0.336743 623:0.336743 624:0.29911339 625:0.336743 626:0.336743 627:0.336743 628:0.336743 629:0.336743 630:0.336743 631:0.33277869 632:0.33277869 633:0.33277869 634:0.33277869 635:0.33277869 636:0.33277869 637:0.33277869 638:0.33277869 639:0.33277869 640:0.32280281 641:0.29183224 642:0.34489232 643:0.34489232 644:0.34489232 645:0.34489232 646:0.34489232 647:0.30574837 648:0.34489232 649:0.33277869 650:0.33277869 651:0.33277869 652:0.33277869 653:0.33277869 654:0.33277869 655:0.33277869 656:0.33277869 657:0.33277869 658:0.33277869 659:0.33277869 660:0.33277869 661:0.33277869 662:0.33277869 663:0.33277869 664:0.33277869 665:0.33277869 666:0.33277869 667:0.33277869 668:0.33277869 669:0.33277869 670:0.33277869 671:0.33277869 672:0.33277869 673:0.33277869 674:0.33277869 675:0.33277869 676:0.26228514 677:0.25633854 678:0.35625419 679:0.35625419 680:0.35625419 681:0.35625419 682:0.35625419 683:0.35625419 684:0.31691551 685:0.34253877 686:0.34253877 687:0.28341967 688:0.34253877 689:0.34253877 690:0.34253877 691:0.34253877 692:0.34253877 693:0.30809283 694:0.33277869 695:0.33277869 696:0.33277869 697:0.33277869 698:0.33277869 699:0.33277869 700:0.33277869 701:0.33277869 702:0.33277869 703:0.34524551 704:0.34524551 705:0.30505651 706:0.26292557 707:0.34524551 708:0.34524551 709:0.34524551 710:0.34524551 711:0.34524551 712:0.34291586 713:0.34291586 714:0.29574618 715:0.29320469 716:0.34291586 717:0.34291586 718:0.34291586 719:0.34291586 720:0.34291586 
0.3658091993278886 1:0.16776991 2:0.042023171 3:0.038196597 4:0.057196673 5:0.054632623 6:0.057905708 7:0.51099151 8:0.58823168 9:0.58823168 10:0.38574225 11:0.38574225 12:0.38574225 13:0.38574225 14:0.2328338 15:0.13175529 16:0.17830513 17:0.38574225 18:0.38574225 19:0.48853835 20:0.48853835 21:0.48853835 22:0.48853835 23:0.12386786 24:0.015139743 25:0.02768728 26:0.055876564 27:0.14484601 28:0.52623492 29:0.52623492 30:0.35588023 31:0.12782487 32:0.31018665 33:0.07181485 34:0.18441117 35:0.15872203 36:0.37058726 37:0.43501687 38:0.43501687 39:0.43501687 40:0.43501687 41:0.17703938 42:0.05189475 43:0.021026829 44:0.12238476 45:0.43501687 46:0.158222 47:0.20719251 48:0.23609069 49:0.11647974 50:0.41188958 51:0.57413352 52:0.57413352 53:0.1383951 54:0.094513655 55:0.66482562 56:0.27368104 57:0.091166697 58:0.056057956 59:0.027641501 60:0.043506149 61:0.067384154 62:0.12579332 63:0.66482562 64:0.61838835 65:0.61838835 66:0.18001401 67:0.038989007 68:0.020180272 69:0.0045592221 70:0.01876926 71:0.034806781 72:0.43943182 73:0.55780941 74:0.49475044 75:0.038098801 76:0.0049367822 77:0.005878611 78:0.021580333 79:0.029900555 80:0.35281569 81:0.55780941 82:0.45621166 83:0.45621166 84:0.17370155 85:0.13809843 86:0.16639397 87:0.16704687 88:0.24102232 89:0.45621166 90:0.45621166 91:0.39368761 92:0.20082398 93:0.065023318 94:0.042698126 95:0.10542758 96:0.25851387 97:0.49882942 98:0.49882942 99:0.46694812 100:0.55535382 101:0.1225073 102:0.030204533 103:0.030375931 104:0.05166705 105:0.080742672 106:0.20777012 107:0.55535382 108:0.55535382 109:0.38337886 110:0.16865616 111:0.086278245 112:0.059790056 113:0.22995166 114:0.26038501 115:0.47892079 116:0.47892079 117:0.47892079 118:0.34786054 119:0.16872716 120:0.34786054 121:0.34786054 122:0.34786054 123:0.34786054 124:0.34786054 125:0.34786054 126:0.34786054 127:0.41497764 128:0.41497764 129:0.41497764 130:0.12114079 131:0.1448939 132:0.11086079 133:0.29472497 134:0.41497764 135:0.41497764 136:0.50428706 137:0.41574991 138:0.22034176 139:0.058898628 140:0.043490652 141:0.034059543 142:0.064250141 143:0.50428706 144:0.50428706 145:0.38574225 146:0.38574225 147:0.38574225 148:0.38574225 149:0.2328338 150:0.13175529 151:0.17830513 152:0.38574225 153:0.38574225 154:0.48853835 155:0.48853835 156:0.48853835 157:0.48853835 158:0.12386786 159:0.015139743 160:0.02768728 161:0.055876564 162:0.14484601 163:0.52623492 164:0.52623492 165:0.35588023 166:0.12782487 167:0.31018665 168:0.07181485 169:0.18441117 170:0.15872203 171:0.37058726 172:0.36020851 173:0.36020851 174:0.36020851 175:0.29105911 176:0.36020851 177:0.058605485 178:0.36020851 179:0.36020851 180:0.36020851 181:0.158222 182:0.20719251 183:0.23609069 184:0.11647974 185:0.41188958 186:0.57413352 187:0.57413352 188:0.1383951 189:0.094513655 190:0.66482562 191:0.27368104 192:0.091166697 193:0.056057956 194:0.027641501 195:0.043506149 196:0.067384154 197:0.12579332 198:0.66482562 199:0.61838835 200:0.61838835 201:0.18001401 202:0.038989007 203:0.020180272 204:0.0045592221 205:0.01876926 206:0.034806781 207:0.43943182 208:0.65100592 209:0.65100592 210:0.27366084 211:0.10098395 212:0.081350856 213:0.06457068 214:0.047256175 215:0.019592728 216:0.21769422 217:0.45621166 218:0.45621166 219:0.17370155 220:0.13809843 221:0.16639397 222:0.16704687 223:0.24102232 224:0.45621166 225:0.45621166 226:0.39368761 227:0.20082398 228:0.065023318 229:0.042698126 230:0.10542758 231:0.25851387 232:0.49882942 233:0.49882942 234:0.46694812 235:0.55535382 236:0.1225073 237:0.030204533 238:0.030375931 239:0.05166705 240:0.080742672 241:0.20777012 242:0.55535382 243:0.55535382 244:0.43478712 245:0.43478712 246:0.38178813 247:0.30493963 248:0.081065997 249:0.13724849 250:0.18485689 251:0.36084104 252:0.43478712 253:0.34786054 254:0.16872716 255:0.34786054 256:0.34786054 257:0.34786054 258:0.34786054 259:0.34786054 260:0.34786054 261:0.34786054 262:0.41497764 263:0.41497764 264:0.41497764 265:0.12114079 266:0.1448939 267:0.11086079 268:0.29472497 269:0.41497764 270:0.41497764 271:0.50428706 272:0.41574991 273:0.22034176 274:0.058898628 275:0.043490652 276:0.034059543 277:0.064250141 278:0.50428706 279:0.50428706 280:0.33233064 281:0.23025106 282:0.15848005 283:0.082254469 284:0.057194244 285:0.0032546113 286:0.10154944 287:0.62642264 288:0.62642264 289:0.48853835 290:0.48853835 291:0.48853835 292:0.48853835 293:0.12386786 294:0.015139743 295:0.02768728 296:0.055876564 297:0.14484601 298:0.52623492 299:0.52623492 300:0.35588023 301:0.12782487 302:0.31018665 303:0.07181485 304:0.18441117 305:0.15872203 306:0.37058726 307:0.36020851 308:0.36020851 309:0.36020851 310:0.29105911 311:0.36020851 312:0.058605485 313:0.36020851 314:0.36020851 315:0.36020851 316:0.48342815 317:0.48342815 318:0.48342815 319:0.48342815 320:0.13781263 321:0.066840425 322:0.028447922 323:0.047745753 324:0.18387944 325:0.66482562 326:0.27368104 327:0.091166697 328:0.056057956 329:0.027641501 330:0.043506149 331:0.067384154 332:0.12579332 333:0.66482562 334:0.61838835 335:0.61838835 336:0.18001401 337:0.038989007 338:0.020180272 339:0.0045592221 340:0.01876926 341:0.034806781 342:0.43943182 343:0.65100592 344:0.65100592 345:0.27366084 346:0.10098395 347:0.081350856 348:0.06457068 349:0.047256175 350:0.019592728 351:0.21769422 352:0.51954532 353:0.51954532 354:0.51954532 355:0.35557261 356:0.15966123 357:0.046794403 358:0.035429616 359:0.09311562 360:0.14488035 361:0.39368761 362:0.20082398 363:0.065023318 364:0.042698126 365:0.10542758 366:0.25851387 367:0.49882942 368:0.49882942 369:0.46694812 370:0.55535382 371:0.1225073 372:0.030204533 373:0.030375931 374:0.05166705 375:0.080742672 376:0.20777012 377:0.55535382 378:0.55535382 379:0.43478712 380:0.43478712 381:0.38178813 382:0.30493963 383:0.081065997 384:0.13724849 385:0.18485689 386:0.36084104 387:0.43478712 388:0.42547831 389:0.42547831 390:0.42547831 391:0.18850847 392:0.081424206 393:0.10841784 394:0.19149649 395:0.42547831 396:0.42547831 397:0.41497764 398:0.41497764 399:0.41497764 400:0.12114079 401:0.1448939 402:0.11086079 403:0.29472497 404:0.41497764 405:0.41497764 406:0.50428706 407:0.41574991 408:0.22034176 409:0.058898628 410:0.043490652 411:0.034059543 412:0.064250141 413:0.50428706 414:0.50428706 415:0.33233064 416:0.23025106 417:0.15848005 418:0.082254469 419:0.057194244 420:0.0032546113 421:0.10154944 422:0.62642264 423:0.62642264 424:0.50808072 425:0.32630149 426:0.20792358 427:0.15456121 428:0.13409777 429:0.036393493 430:0.16609254 431:0.50808072 432:0.50808072 433:0.52623492 434:0.52623492 435:0.35588023 436:0.12782487 437:0.31018665 438:0.07181485 439:0.18441117 440:0.15872203 441:0.37058726 442:0.36020851 443:0.36020851 444:0.36020851 445:0.29105911 446:0.36020851 447:0.058605485 448:0.36020851 449:0.36020851 450:0.36020851 451:0.48342815 452:0.48342815 453:0.48342815 454:0.48342815 455:0.13781263 456:0.066840425 457:0.028447922 458:0.047745753 459:0.18387944 460:0.57076609 461:0.57076609 462:0.57076609 463:0.068193875 464:0.026833843 465:0.0026711954 466:0.036447641 467:0.025857843 468:0.098001316 469:0.61838835 470:0.61838835 471:0.18001401 472:0.038989007 473:0.020180272 474:0.0045592221 475:0.01876926 476:0.034806781 477:0.43943182 478:0.65100592 479:0.65100592 480:0.27366084 481:0.10098395 482:0.081350856 483:0.06457068 484:0.047256175 485:0.019592728 486:0.21769422 487:0.51954532 488:0.51954532 489:0.51954532 490:0.35557261 491:0.15966123 492:0.046794403 493:0.035429616 494:0.09311562 495:0.14488035 496:0.55418617 497:0.55418617 498:0.55418617 499:0.0980298 500:0.023199756 501:0.034483001 502:0.027445268 503:0.068548642 504:0.2372964 505:0.55535382 506:0.1225073 507:0.030204533 508:0.030375931 509:0.05166705 510:0.080742672 511:0.20777012 512:0.55535382 513:0.55535382 514:0.43478712 515:0.43478712 516:0.38178813 517:0.30493963 518:0.081065997 519:0.13724849 520:0.18485689 521:0.36084104 522:0.43478712 523:0.42547831 524:0.42547831 525:0.42547831 526:0.18850847 527:0.081424206 528:0.10841784 529:0.19149649 530:0.42547831 531:0.42547831 532:0.34680957 533:0.32635373 534:0.34680957 535:0.34680957 536:0.23819679 537:0.33410951 538:0.34680957 539:0.34680957 540:0.34680957 541:0.50428706 542:0.41574991 543:0.22034176 544:0.058898628 545:0.043490652 546:0.034059543 547:0.064250141 548:0.50428706 549:0.50428706 550:0.33233064 551:0.23025106 552:0.15848005 553:0.082254469 554:0.057194244 555:0.0032546113 556:0.10154944 557:0.62642264 558:0.62642264 559:0.50808072 560:0.32630149 561:0.20792358 562:0.15456121 563:0.13409777 564:0.036393493 565:0.16609254 566:0.50808072 567:0.50808072 568:0.43868318 569:0.43868318 570:0.30961365 571:0.19733495 572:0.18270102 573:0.16580501 574:0.17370509 575:0.43868318 576:0.43868318 577:0.36020851 578:0.36020851 579:0.36020851 580:0.29105911 581:0.36020851 582:0.058605485 583:0.36020851 584:0.36020851 585:0.36020851 586:0.48342815 587:0.48342815 588:0.48342815 589:0.48342815 590:0.13781263 591:0.066840425 592:0.028447922 593:0.047745753 594:0.18387944 595:0.57076609 596:0.57076609 597:0.57076609 598:0.068193875 599:0.026833843 600:0.0026711954 601:0.036447641 602:0.025857843 603:0.098001316 604:0.37325349 605:0.60364026 606:0.60364026 607:0.33026755 608:0.061572999 609:0.04750102 610:0.03638627 611:0.037406251 612:0.089688994 613:0.65100592 614:0.65100592 615:0.27366084 616:0.10098395 617:0.081350856 618:0.06457068 619:0.047256175 620:0.019592728 621:0.21769422 622:0.51954532 623:0.51954532 624:0.51954532 625:0.35557261 626:0.15966123 627:0.046794403 628:0.035429616 629:0.09311562 630:0.14488035 631:0.55418617 632:0.55418617 633:0.55418617 634:0.0980298 635:0.023199756 636:0.034483001 637:0.027445268 638:0.068548642 639:0.2372964 640:0.55878985 641:0.55878985 642:0.55878985 643:0.12794527 644:0.066089094 645:0.021057338 646:0.017246909 647:0.061447542 648:0.1800759 649:0.43478712 650:0.43478712 651:0.38178813 652:0.30493963 653:0.081065997 654:0.13724849 655:0.18485689 656:0.36084104 657:0.43478712 658:0.42547831 659:0.42547831 660:0.42547831 661:0.18850847 662:0.081424206 663:0.10841784 664:0.19149649 665:0.42547831 666:0.42547831 667:0.34680957 668:0.32635373 669:0.34680957 670:0.34680957 671:0.23819679 672:0.33410951 673:0.34680957 674:0.34680957 675:0.34680957 676:0.42751145 677:0.095386572 678:0.09460213 679:0.11031388 680:0.22733654 681:0.42751145 682:0.42751145 683:0.42751145 684:0.42751145 685:0.33233064 686:0.23025106 687:0.15848005 688:0.082254469 689:0.057194244 690:0.0032546113 691:0.10154944 692:0.62642264 693:0.62642264 694:0.50808072 695:0.32630149 696:0.20792358 697:0.15456121 698:0.13409777 699:0.036393493 700:0.16609254 701:0.50808072 702:0.50808072 703:0.43868318 704:0.43868318 705:0.30961365 706:0.19733495 707:0.18270102 708:0.16580501 709:0.17370509 710:0.43868318 711:0.43868318 712:0.38712475 713:0.3408452 714:0.23900262 715:0.26103851 716:0.38712475 717:0.33664265 718:0.20470259 719:0.38712475 720:0.38712475 
0.7579463998786149 1:0.14495498 2:0.069819622 3:0.048477653 4:0.042927977 5:0.16720426 6:0.52967882 7:0.52967882 8:0.52967882 9:0.30821162 10:0.069457255 11:0.28502434 12:0.53440559 13:0.53440559 14:0.53440559 15:0.19945663 16:0.070415713 17:0.082917966 18:0.014675161 19:0.46390006 20:0.46390006 21:0.46390006 22:0.14034076 23:0.14601249 24:0.10855458 25:0.092873365 26:0.27042291 27:0.46390006 28:0.38714561 29:0.38714561 30:0.38714561 31:0.20439221 32:0.24363737 33:0.17645605 34:0.33830702 35:0.38714561 36:0.38714561 37:0.40062284 38:0.40062284 39:0.31094351 40:0.083814688 41:0.14073092 42:0.29276869 43:0.38049114 44:0.40062284 45:0.40062284 46:0.34574217 47:0.10381518 48:0.37146905 49:0.37146905 50:0.37146905 51:0.37146905 52:0.37146905 53:0.37146905 54:0.19503298 55:0.51005697 56:0.51005697 57:0.14158048 58:0.10149552 59:0.047517795 60:0.045846745 61:0.19734721 62:0.37520581 63:0.51005697 64:0.45205632 65:0.45205632 66:0.4368377 67:0.13545471 68:0.11267518 69:0.085381038 70:0.16222081 71:0.35629144 72:0.45205632 73:0.34142375 74:0.34142375 75:0.34142375 76:0.26568162 77:0.34142375 78:0.33167869 79:0.34142375 80:0.34142375 81:0.34142375 82:0.37027398 83:0.37027398 84:0.29448581 85:0.19592245 86:0.22040036 87:0.37027398 88:0.37027398 89:0.37027398 90:0.37027398 91:0.24739528 92:0.034433249 93:0.019133795 94:0.031673409 95:0.029127359 96:0.048490021 97:0.55602413 98:0.55602413 99:0.55602413 100:0.48506656 101:0.48506656 102:0.48506656 103:0.18624809 104:0.030122997 105:0.049941666 106:0.059495408 107:0.11120773 108:0.48506656 109:0.33277869 110:0.33277869 111:0.33277869 112:0.33277869 113:0.33277869 114:0.33277869 115:0.33277869 116:0.33277869 117:0.33277869 118:0.35240403 119:0.35240403 120:0.2224374 121:0.33584574 122:0.35240403 123:0.29845715 124:0.35240403 125:0.35240403 126:0.35240403 127:0.34934127 128:0.32217577 129:0.26874697 130:0.29707164 131:0.34934127 132:0.34934127 133:0.34934127 134:0.34934127 135:0.34934127 136:0.45869151 137:0.23934281 138:0.063823603 139:0.077586904 140:0.19324739 141:0.22159429 142:0.45869151 143:0.45869151 144:0.45869151 145:0.069457255 146:0.28502434 147:0.53440559 148:0.53440559 149:0.53440559 150:0.19945663 151:0.070415713 152:0.082917966 153:0.014675161 154:0.46390006 155:0.46390006 156:0.46390006 157:0.14034076 158:0.14601249 159:0.10855458 160:0.092873365 161:0.27042291 162:0.46390006 163:0.38714561 164:0.38714561 165:0.38714561 166:0.20439221 167:0.24363737 168:0.17645605 169:0.33830702 170:0.38714561 171:0.38714561 172:0.50941098 173:0.50941098 174:0.12377295 175:0.04269411 176:0.054274876 177:0.092443608 178:0.0505636 179:0.4303754 180:0.50941098 181:0.34574217 182:0.10381518 183:0.37146905 184:0.37146905 185:0.37146905 186:0.37146905 187:0.37146905 188:0.37146905 189:0.19503298 190:0.51005697 191:0.51005697 192:0.14158048 193:0.10149552 194:0.047517795 195:0.045846745 196:0.19734721 197:0.37520581 198:0.51005697 199:0.45205632 200:0.45205632 201:0.4368377 202:0.13545471 203:0.11267518 204:0.085381038 205:0.16222081 206:0.35629144 207:0.45205632 208:0.49954009 209:0.49954009 210:0.19927199 211:0.086887673 212:0.073374011 213:0.058360863 214:0.19440709 215:0.39057305 216:0.49954009 217:0.37027398 218:0.37027398 219:0.29448581 220:0.19592245 221:0.22040036 222:0.37027398 223:0.37027398 224:0.37027398 225:0.37027398 226:0.24739528 227:0.034433249 228:0.019133795 229:0.031673409 230:0.029127359 231:0.048490021 232:0.55602413 233:0.55602413 234:0.55602413 235:0.48506656 236:0.48506656 237:0.48506656 238:0.18624809 239:0.030122997 240:0.049941666 241:0.059495408 242:0.11120773 243:0.48506656 244:0.55217433 245:0.55217433 246:0.21183045 247:0.062119018 248:0.0066810865 249:0.0057669957 250:0.041542597 251:0.17106098 252:0.55217433 253:0.35240403 254:0.35240403 255:0.2224374 256:0.33584574 257:0.35240403 258:0.29845715 259:0.35240403 260:0.35240403 261:0.35240403 262:0.34934127 263:0.32217577 264:0.26874697 265:0.29707164 266:0.34934127 267:0.34934127 268:0.34934127 269:0.34934127 270:0.34934127 271:0.45869151 272:0.23934281 273:0.063823603 274:0.077586904 275:0.19324739 276:0.22159429 277:0.45869151 278:0.45869151 279:0.45869151 280:0.22724937 281:0.086823836 282:0.049910288 283:0.075301215 284:0.071492516 285:0.1713323 286:0.54551023 287:0.54551023 288:0.54551023 289:0.46390006 290:0.46390006 291:0.46390006 292:0.14034076 293:0.14601249 294:0.10855458 295:0.092873365 296:0.27042291 297:0.46390006 298:0.38714561 299:0.38714561 300:0.38714561 301:0.20439221 302:0.24363737 303:0.17645605 304:0.33830702 305:0.38714561 306:0.38714561 307:0.50941098 308:0.50941098 309:0.12377295 310:0.04269411 311:0.054274876 312:0.092443608 313:0.0505636 314:0.4303754 315:0.50941098 316:0.54753858 317:0.24243857 318:0.084964484 319:0.033503108 320:0.034322593 321:0.036543943 322:0.15970393 323:0.54753858 324:0.54753858 325:0.51005697 326:0.51005697 327:0.14158048 328:0.10149552 329:0.047517795 330:0.045846745 331:0.19734721 332:0.37520581 333:0.51005697 334:0.45205632 335:0.45205632 336:0.4368377 337:0.13545471 338:0.11267518 339:0.085381038 340:0.16222081 341:0.35629144 342:0.45205632 343:0.49954009 344:0.49954009 345:0.19927199 346:0.086887673 347:0.073374011 348:0.058360863 349:0.19440709 350:0.39057305 351:0.49954009 352:0.50537503 353:0.50537503 354:0.50537503 355:0.2759352 356:0.097259179 357:0.059982102 358:0.099278077 359:0.12401883 360:0.33809289 361:0.24739528 362:0.034433249 363:0.019133795 364:0.031673409 365:0.029127359 366:0.048490021 367:0.55602413 368:0.55602413 369:0.55602413 370:0.48506656 371:0.48506656 372:0.48506656 373:0.18624809 374:0.030122997 375:0.049941666 376:0.059495408 377:0.11120773 378:0.48506656 379:0.55217433 380:0.55217433 381:0.21183045 382:0.062119018 383:0.0066810865 384:0.0057669957 385:0.041542597 386:0.17106098 387:0.55217433 388:0.50878638 389:0.50878638 390:0.50878638 391:0.22777984 392:0.08516556 393:0.071196258 394:0.050357092 395:0.18632214 396:0.34186319 397:0.34934127 398:0.32217577 399:0.26874697 400:0.29707164 401:0.34934127 402:0.34934127 403:0.34934127 404:0.34934127 405:0.34934127 406:0.45869151 407:0.23934281 408:0.063823603 409:0.077586904 410:0.19324739 411:0.22159429 412:0.45869151 413:0.45869151 414:0.45869151 415:0.22724937 416:0.086823836 417:0.049910288 418:0.075301215 419:0.071492516 420:0.1713323 421:0.54551023 422:0.54551023 423:0.54551023 424:0.33277869 425:0.33277869 426:0.33277869 427:0.33277869 428:0.33277869 429:0.33277869 430:0.33277869 431:0.33277869 432:0.33277869 433:0.38714561 434:0.38714561 435:0.38714561 436:0.20439221 437:0.24363737 438:0.17645605 439:0.33830702 440:0.38714561 441:0.38714561 442:0.50941098 443:0.50941098 444:0.12377295 445:0.04269411 446:0.054274876 447:0.092443608 448:0.0505636 449:0.4303754 450:0.50941098 451:0.54753858 452:0.24243857 453:0.084964484 454:0.033503108 455:0.034322593 456:0.036543943 457:0.15970393 458:0.54753858 459:0.54753858 460:0.065846935 461:0.12559323 462:0.38614613 463:0.43574998 464:0.43574998 465:0.43574998 466:0.43574998 467:0.2224659 468:0.13200593 469:0.45205632 470:0.45205632 471:0.4368377 472:0.13545471 473:0.11267518 474:0.085381038 475:0.16222081 476:0.35629144 477:0.45205632 478:0.49954009 479:0.49954009 480:0.19927199 481:0.086887673 482:0.073374011 483:0.058360863 484:0.19440709 485:0.39057305 486:0.49954009 487:0.50537503 488:0.50537503 489:0.50537503 490:0.2759352 491:0.097259179 492:0.059982102 493:0.099278077 494:0.12401883 495:0.33809289 496:0.094929576 497:0.20639576 498:0.54555863 499:0.54555863 500:0.54555863 501:0.11840198 502:0.071786098 503:0.15073824 504:0.090244599 505:0.48506656 506:0.48506656 507:0.48506656 508:0.18624809 509:0.030122997 510:0.049941666 511:0.059495408 512:0.11120773 513:0.48506656 514:0.55217433 515:0.55217433 516:0.21183045 517:0.062119018 518:0.0066810865 519:0.0057669957 520:0.041542597 521:0.17106098 522:0.55217433 523:0.50878638 524:0.50878638 525:0.50878638 526:0.22777984 527:0.08516556 528:0.071196258 529:0.050357092 530:0.18632214 531:0.34186319 532:0.45971677 533:0.45971677 534:0.45971677 535:0.21933727 536:0.17727667 537:0.13550176 538:0.15561329 539:0.16714732 540:0.45971677 541:0.45869151 542:0.23934281 543:0.063823603 544:0.077586904 545:0.19324739 546:0.22159429 547:0.45869151 548:0.45869151 549:0.45869151 550:0.22724937 551:0.086823836 552:0.049910288 553:0.075301215 554:0.071492516 555:0.1713323 556:0.54551023 557:0.54551023 558:0.54551023 559:0.33277869 560:0.33277869 561:0.33277869 562:0.33277869 563:0.33277869 564:0.33277869 565:0.33277869 566:0.33277869 567:0.33277869 568:0.33750337 569:0.33750337 570:0.33750337 571:0.33750337 572:0.33750337 573:0.33187523 574:0.33750337 575:0.29854143 576:0.33750337 577:0.50941098 578:0.50941098 579:0.12377295 580:0.04269411 581:0.054274876 582:0.092443608 583:0.0505636 584:0.4303754 585:0.50941098 586:0.54753858 587:0.24243857 588:0.084964484 589:0.033503108 590:0.034322593 591:0.036543943 592:0.15970393 593:0.54753858 594:0.54753858 595:0.065846935 596:0.12559323 597:0.38614613 598:0.43574998 599:0.43574998 600:0.43574998 601:0.43574998 602:0.2224659 603:0.13200593 604:0.30500752 605:0.36067104 606:0.36067104 607:0.36067104 608:0.36067104 609:0.36067104 610:0.22799729 611:0.34648299 612:0.28445655 613:0.49954009 614:0.49954009 615:0.19927199 616:0.086887673 617:0.073374011 618:0.058360863 619:0.19440709 620:0.39057305 621:0.49954009 622:0.50537503 623:0.50537503 624:0.50537503 625:0.2759352 626:0.097259179 627:0.059982102 628:0.099278077 629:0.12401883 630:0.33809289 631:0.094929576 632:0.20639576 633:0.54555863 634:0.54555863 635:0.54555863 636:0.11840198 637:0.071786098 638:0.15073824 639:0.090244599 640:0.33750433 641:0.33750433 642:0.33750433 643:0.33750433 644:0.33750433 645:0.33750433 646:0.29215497 647:0.33750433 648:0.33750433 649:0.55217433 650:0.55217433 651:0.21183045 652:0.062119018 653:0.0066810865 654:0.0057669957 655:0.041542597 656:0.17106098 657:0.55217433 658:0.50878638 659:0.50878638 660:0.50878638 661:0.22777984 662:0.08516556 663:0.071196258 664:0.050357092 665:0.18632214 666:0.34186319 667:0.45971677 668:0.45971677 669:0.45971677 670:0.21933727 671:0.17727667 672:0.13550176 673:0.15561329 674:0.16714732 675:0.45971677 676:0.5556888 677:0.5556888 678:0.18821163 679:0.10798925 680:0.04683724 681:0.046843667 682:0.067618392 683:0.10970452 684:0.5556888 685:0.22724937 686:0.086823836 687:0.049910288 688:0.075301215 689:0.071492516 690:0.1713323 691:0.54551023 692:0.54551023 693:0.54551023 694:0.33277869 695:0.33277869 696:0.33277869 697:0.33277869 698:0.33277869 699:0.33277869 700:0.33277869 701:0.33277869 702:0.33277869 703:0.33750337 704:0.33750337 705:0.33750337 706:0.33750337 707:0.33750337 708:0.33187523 709:0.33750337 710:0.29854143 711:0.33750337 712:0.38085037 713:0.38085037 714:0.38085037 715:0.33015224 716:0.16377157 717:0.21986684 718:0.29461351 719:0.38085037 720:0.38085037 
0.0380972541971405 1:0.285236 2:0.32718906 3:0.35802078 4:0.35802078 5:0.35802078 6:0.35802078 7:0.35802078 8:0.35413739 9:0.2042127 10:0.4391709 11:0.4391709 12:0.4391709 13:0.4391709 14:0.14265803 15:0.12071199 16:0.078695357 17:0.091906726 18:0.41781142 19:0.075043008 20:0.11478058 21:0.19242918 22:0.56984007 23:0.56984007 24:0.49705043 25:0.17196375 26:0.09045279 27:0.065015316 28:0.39029276 29:0.39029276 30:0.39029276 31:0.39029276 32:0.39029276 33:0.2969068 34:0.13821781 35:0.12872997 36:0.33261019 37:0.44706327 38:0.44706327 39:0.44706327 40:0.44706327 41:0.39182019 42:0.16502446 43:0.0900025 44:0.044477344 45:0.072368875 46:0.40975934 47:0.33585298 48:0.19390616 49:0.28224188 50:0.22117932 51:0.21325006 52:0.40956706 53:0.40975934 54:0.40975934 55:0.079447463 56:0.15374881 57:0.26255804 58:0.50685418 59:0.50685418 60:0.50685418 61:0.32167706 62:0.091881476 63:0.11588316 64:0.10544429 65:0.059143018 66:0.12579787 67:0.39569226 68:0.49549675 69:0.49549675 70:0.49549675 71:0.25471422 72:0.081282966 73:0.34124267 74:0.34124267 75:0.25498644 76:0.34124267 77:0.34124267 78:0.34124267 79:0.34124267 80:0.34124267 81:0.34124267 82:0.3369382 83:0.297346 84:0.3369382 85:0.3369382 86:0.3369382 87:0.3369382 88:0.3369382 89:0.3369382 90:0.3369382 91:0.21157759 92:0.33891755 93:0.40003392 94:0.40003392 95:0.40003392 96:0.40003392 97:0.40003392 98:0.12420841 99:0.14425685 100:0.014350025 101:0.020845631 102:0.034800101 103:0.046256982 104:0.16129512 105:0.56315011 106:0.56315011 107:0.56315011 108:0.11382016 109:0.24491253 110:0.064140424 111:0.03055669 112:0.048256882 113:0.21052001 114:0.40720418 115:0.48908845 116:0.48908845 117:0.48908845 118:0.34086701 119:0.34086701 120:0.34086701 121:0.34086701 122:0.34086701 123:0.34086701 124:0.34086701 125:0.34086701 126:0.25898197 127:0.0021882909 128:0.035807159 129:0.12046454 130:0.54368228 131:0.57358015 132:0.57358015 133:0.15577753 134:0.024533257 135:0.0051568826 136:0.013336591 137:0.026146883 138:0.037188016 139:0.07110139 140:0.57044309 141:0.57044309 142:0.57044309 143:0.10317428 144:0.01196497 145:0.4391709 146:0.4391709 147:0.4391709 148:0.4391709 149:0.14265803 150:0.12071199 151:0.078695357 152:0.091906726 153:0.41781142 154:0.075043008 155:0.11478058 156:0.19242918 157:0.56984007 158:0.56984007 159:0.49705043 160:0.17196375 161:0.09045279 162:0.065015316 163:0.39029276 164:0.39029276 165:0.39029276 166:0.39029276 167:0.39029276 168:0.2969068 169:0.13821781 170:0.12872997 171:0.33261019 172:0.34662414 173:0.34459436 174:0.24476895 175:0.31143224 176:0.34662414 177:0.34662414 178:0.34662414 179:0.34662414 180:0.34662414 181:0.40975934 182:0.33585298 183:0.19390616 184:0.28224188 185:0.22117932 186:0.21325006 187:0.40956706 188:0.40975934 189:0.40975934 190:0.079447463 191:0.15374881 192:0.26255804 193:0.50685418 194:0.50685418 195:0.50685418 196:0.32167706 197:0.091881476 198:0.11588316 199:0.10544429 200:0.059143018 201:0.12579787 202:0.39569226 203:0.49549675 204:0.49549675 205:0.49549675 206:0.25471422 207:0.081282966 208:0.29505816 209:0.35862392 210:0.35862392 211:0.35862392 212:0.35862392 213:0.35862392 214:0.18148752 215:0.32365599 216:0.35862392 217:0.3369382 218:0.297346 219:0.3369382 220:0.3369382 221:0.3369382 222:0.3369382 223:0.3369382 224:0.3369382 225:0.3369382 226:0.21157759 227:0.33891755 228:0.40003392 229:0.40003392 230:0.40003392 231:0.40003392 232:0.40003392 233:0.12420841 234:0.14425685 235:0.014350025 236:0.020845631 237:0.034800101 238:0.046256982 239:0.16129512 240:0.56315011 241:0.56315011 242:0.56315011 243:0.11382016 244:0.22628912 245:0.14744163 246:0.050713349 247:0.075876243 248:0.42765713 249:0.42765713 250:0.42765713 251:0.42765713 252:0.42765713 253:0.34086701 254:0.34086701 255:0.34086701 256:0.34086701 257:0.34086701 258:0.34086701 259:0.34086701 260:0.34086701 261:0.25898197 262:0.0021882909 263:0.035807159 264:0.12046454 265:0.54368228 266:0.57358015 267:0.57358015 268:0.15577753 269:0.024533257 270:0.0051568826 271:0.013336591 272:0.026146883 273:0.037188016 274:0.07110139 275:0.57044309 276:0.57044309 277:0.57044309 278:0.10317428 279:0.01196497 280:0.0097057763 281:0.018411754 282:0.032661788 283:0.058119491 284:0.47627816 285:0.60690153 286:0.60690153 287:0.14945696 288:0.056789622 289:0.075043008 290:0.11478058 291:0.19242918 292:0.56984007 293:0.56984007 294:0.49705043 295:0.17196375 296:0.09045279 297:0.065015316 298:0.39029276 299:0.39029276 300:0.39029276 301:0.39029276 302:0.39029276 303:0.2969068 304:0.13821781 305:0.12872997 306:0.33261019 307:0.34662414 308:0.34459436 309:0.24476895 310:0.31143224 311:0.34662414 312:0.34662414 313:0.34662414 314:0.34662414 315:0.34662414 316:0.34335196 317:0.4466157 318:0.4466157 319:0.4466157 320:0.4466157 321:0.14921103 322:0.14856677 323:0.1101242 324:0.15271713 325:0.079447463 326:0.15374881 327:0.26255804 328:0.50685418 329:0.50685418 330:0.50685418 331:0.32167706 332:0.091881476 333:0.11588316 334:0.10544429 335:0.059143018 336:0.12579787 337:0.39569226 338:0.49549675 339:0.49549675 340:0.49549675 341:0.25471422 342:0.081282966 343:0.29505816 344:0.35862392 345:0.35862392 346:0.35862392 347:0.35862392 348:0.35862392 349:0.18148752 350:0.32365599 351:0.35862392 352:0.35770437 353:0.35770437 354:0.35770437 355:0.35770437 356:0.19191229 357:0.35770437 358:0.35770437 359:0.35770437 360:0.25284192 361:0.21157759 362:0.33891755 363:0.40003392 364:0.40003392 365:0.40003392 366:0.40003392 367:0.40003392 368:0.12420841 369:0.14425685 370:0.014350025 371:0.020845631 372:0.034800101 373:0.046256982 374:0.16129512 375:0.56315011 376:0.56315011 377:0.56315011 378:0.11382016 379:0.22628912 380:0.14744163 381:0.050713349 382:0.075876243 383:0.42765713 384:0.42765713 385:0.42765713 386:0.42765713 387:0.42765713 388:0.22186723 389:0.21241467 390:0.40226552 391:0.40226552 392:0.40226552 393:0.40226552 394:0.40226552 395:0.2396937 396:0.18733844 397:0.0021882909 398:0.035807159 399:0.12046454 400:0.54368228 401:0.57358015 402:0.57358015 403:0.15577753 404:0.024533257 405:0.0051568826 406:0.013336591 407:0.026146883 408:0.037188016 409:0.07110139 410:0.57044309 411:0.57044309 412:0.57044309 413:0.10317428 414:0.01196497 415:0.0097057763 416:0.018411754 417:0.032661788 418:0.058119491 419:0.47627816 420:0.60690153 421:0.60690153 422:0.14945696 423:0.056789622 424:0.31179187 425:0.12199391 426:0.098601513 427:0.10609245 428:0.22546045 429:0.1304566 430:0.49208859 431:0.52520365 432:0.52520365 433:0.39029276 434:0.39029276 435:0.39029276 436:0.39029276 437:0.39029276 438:0.2969068 439:0.13821781 440:0.12872997 441:0.33261019 442:0.34662414 443:0.34459436 444:0.24476895 445:0.31143224 446:0.34662414 447:0.34662414 448:0.34662414 449:0.34662414 450:0.34662414 451:0.34335196 452:0.4466157 453:0.4466157 454:0.4466157 455:0.4466157 456:0.14921103 457:0.14856677 458:0.1101242 459:0.15271713 460:0.3433927 461:0.36563119 462:0.36563119 463:0.36563119 464:0.36563119 465:0.29659277 466:0.25968108 467:0.23365803 468:0.36563119 469:0.10544429 470:0.059143018 471:0.12579787 472:0.39569226 473:0.49549675 474:0.49549675 475:0.49549675 476:0.25471422 477:0.081282966 478:0.29505816 479:0.35862392 480:0.35862392 481:0.35862392 482:0.35862392 483:0.35862392 484:0.18148752 485:0.32365599 486:0.35862392 487:0.35770437 488:0.35770437 489:0.35770437 490:0.35770437 491:0.19191229 492:0.35770437 493:0.35770437 494:0.35770437 495:0.25284192 496:0.42598352 497:0.13272855 498:0.13033193 499:0.19067831 500:0.20923562 501:0.39389819 502:0.42598352 503:0.42598352 504:0.42598352 505:0.014350025 506:0.020845631 507:0.034800101 508:0.046256982 509:0.16129512 510:0.56315011 511:0.56315011 512:0.56315011 513:0.11382016 514:0.22628912 515:0.14744163 516:0.050713349 517:0.075876243 518:0.42765713 519:0.42765713 520:0.42765713 521:0.42765713 522:0.42765713 523:0.22186723 524:0.21241467 525:0.40226552 526:0.40226552 527:0.40226552 528:0.40226552 529:0.40226552 530:0.2396937 531:0.18733844 532:0.35122034 533:0.35122034 534:0.35122034 535:0.35122034 536:0.32319483 537:0.35122034 538:0.16895562 539:0.35122034 540:0.35122034 541:0.013336591 542:0.026146883 543:0.037188016 544:0.07110139 545:0.57044309 546:0.57044309 547:0.57044309 548:0.10317428 549:0.01196497 550:0.0097057763 551:0.018411754 552:0.032661788 553:0.058119491 554:0.47627816 555:0.60690153 556:0.60690153 557:0.14945696 558:0.056789622 559:0.31179187 560:0.12199391 561:0.098601513 562:0.10609245 563:0.22546045 564:0.1304566 565:0.49208859 566:0.52520365 567:0.52520365 568:0.27004001 569:0.253645 570:0.25827429 571:0.39008889 572:0.39008889 573:0.39008889 574:0.39008889 575:0.39008889 576:0.17689903 577:0.34662414 578:0.34459436 579:0.24476895 580:0.31143224 581:0.34662414 582:0.34662414 583:0.34662414 584:0.34662414 585:0.34662414 586:0.34335196 587:0.4466157 588:0.4466157 589:0.4466157 590:0.4466157 591:0.14921103 592:0.14856677 593:0.1101242 594:0.15271713 595:0.3433927 596:0.36563119 597:0.36563119 598:0.36563119 599:0.36563119 600:0.29659277 601:0.25968108 602:0.23365803 603:0.36563119 604:0.35295632 605:0.293152 606:0.1836255 607:0.35407808 608:0.35407808 609:0.35407808 610:0.35407808 611:0.35407808 612:0.35407808 613:0.29505816 614:0.35862392 615:0.35862392 616:0.35862392 617:0.35862392 618:0.35862392 619:0.18148752 620:0.32365599 621:0.35862392 622:0.35770437 623:0.35770437 624:0.35770437 625:0.35770437 626:0.19191229 627:0.35770437 628:0.35770437 629:0.35770437 630:0.25284192 631:0.42598352 632:0.13272855 633:0.13033193 634:0.19067831 635:0.20923562 636:0.39389819 637:0.42598352 638:0.42598352 639:0.42598352 640:0.23808213 641:0.2497084 642:0.3675954 643:0.3675954 644:0.3675954 645:0.3675954 646:0.3675954 647:0.25941014 648:0.36655769 649:0.22628912 650:0.14744163 651:0.050713349 652:0.075876243 653:0.42765713 654:0.42765713 655:0.42765713 656:0.42765713 657:0.42765713 658:0.22186723 659:0.21241467 660:0.40226552 661:0.40226552 662:0.40226552 663:0.40226552 664:0.40226552 665:0.2396937 666:0.18733844 667:0.35122034 668:0.35122034 669:0.35122034 670:0.35122034 671:0.32319483 672:0.35122034 673:0.16895562 674:0.35122034 675:0.35122034 676:0.33277869 677:0.33277869 678:0.33277869 679:0.33277869 680:0.33277869 681:0.33277869 682:0.33277869 683:0.33277869 684:0.33277869 685:0.0097057763 686:0.018411754 687:0.032661788 688:0.058119491 689:0.47627816 690:0.60690153 691:0.60690153 692:0.14945696 693:0.056789622 694:0.31179187 695:0.12199391 696:0.098601513 697:0.10609245 698:0.22546045 699:0.1304566 700:0.49208859 701:0.52520365 702:0.52520365 703:0.27004001 704:0.253645 705:0.25827429 706:0.39008889 707:0.39008889 708:0.39008889 709:0.39008889 710:0.39008889 711:0.17689903 712:0.096038714 713:0.29157522 714:0.52695316 715:0.52695316 716:0.52695316 717:0.17795004 718:0.085284449 719:0.10780976 720:0.12998691 
1 1:0.32510382 2:0.33372387 3:0.33372387 4:0.33372387 5:0.33372387 6:0.33372387 7:0.33372387 8:0.33372387 9:0.33372387 10:0.33449206 11:0.33449206 12:0.33449206 13:0.33449206 14:0.33449206 15:0.33449206 16:0.33449206 17:0.33449206 18:0.31871346 19:0.37913606 20:0.37913606 21:0.37913606 22:0.37913606 23:0.37913606 24:0.24632558 25:0.13673612 26:0.23318315 27:0.37913606 28:0.36173201 29:0.36173201 30:0.36173201 31:0.3387579 32:0.2522637 33:0.18136057 34:0.36173201 35:0.36173201 36:0.36173201 37:0.20523551 38:0.16732213 39:0.36674786 40:0.36674786 41:0.36674786 42:0.36674786 43:0.36674786 44:0.36674786 45:0.34524441 46:0.33957574 47:0.33957574 48:0.33957574 49:0.31121483 50:0.31733266 51:0.33957574 52:0.32738712 53:0.33957574 54:0.33957574 55:0.37252107 56:0.27056041 57:0.2362289 58:0.18611717 59:0.37252107 60:0.37252107 61:0.37252107 62:0.37252107 63:0.37252107 64:0.35520718 65:0.35520718 66:0.35520718 67:0.35520718 68:0.35520718 69:0.35520718 70:0.28150737 71:0.18439052 72:0.35520718 73:0.3872411 74:0.1664454 75:0.12856314 76:0.22839634 77:0.3872411 78:0.3872411 79:0.3872411 80:0.3872411 81:0.3872411 82:0.33277869 83:0.33277869 84:0.33277869 85:0.33277869 86:0.33277869 87:0.33277869 88:0.33277869 89:0.33277869 90:0.33277869 91:0.20820628 92:0.30175483 93:0.36712164 94:0.36712164 95:0.36712164 96:0.36712164 97:0.36712164 98:0.36712164 99:0.23077382 100:0.34800205 101:0.34800205 102:0.34800205 103:0.23417497 104:0.34800205 105:0.34800205 106:0.34800205 107:0.30650803 108:0.34800205 109:0.39433068 110:0.39433068 111:0.39433068 112:0.39433068 113:0.39433068 114:0.24003839 115:0.050025281 116:0.054403324 117:0.39433068 118:0.33433962 119:0.31999299 120:0.33433962 121:0.33433962 122:0.33433962 123:0.33433962 124:0.33433962 125:0.33433962 126:0.33433962 127:0.33847579 128:0.33847579 129:0.33847579 130:0.28300384 131:0.33847579 132:0.33847579 133:0.33847579 134:0.33847579 135:0.33847579 136:0.34918532 137:0.25405374 138:0.28009856 139:0.34918532 140:0.34918532 141:0.34918532 142:0.34918532 143:0.34918532 144:0.34918532 145:0.33449206 146:0.33449206 147:0.33449206 148:0.33449206 149:0.33449206 150:0.33449206 151:0.33449206 152:0.33449206 153:0.31871346 154:0.37913606 155:0.37913606 156:0.37913606 157:0.37913606 158:0.37913606 159:0.24632558 160:0.13673612 161:0.23318315 162:0.37913606 163:0.36173201 164:0.36173201 165:0.36173201 166:0.3387579 167:0.2522637 168:0.18136057 169:0.36173201 170:0.36173201 171:0.36173201 172:0.34037286 173:0.34037286 174:0.34037286 175:0.34037286 176:0.31572813 177:0.29315412 178:0.34037286 179:0.34037286 180:0.34037286 181:0.33957574 182:0.33957574 183:0.33957574 184:0.31121483 185:0.31733266 186:0.33957574 187:0.32738712 188:0.33957574 189:0.33957574 190:0.37252107 191:0.27056041 192:0.2362289 193:0.18611717 194:0.37252107 195:0.37252107 196:0.37252107 197:0.37252107 198:0.37252107 199:0.35520718 200:0.35520718 201:0.35520718 202:0.35520718 203:0.35520718 204:0.35520718 205:0.28150737 206:0.18439052 207:0.35520718 208:0.36238781 209:0.36238781 210:0.36238781 211:0.36238781 212:0.36238781 213:0.16905566 214:0.24471612 215:0.34635854 216:0.36238781 217:0.33277869 218:0.33277869 219:0.33277869 220:0.33277869 221:0.33277869 222:0.33277869 223:0.33277869 224:0.33277869 225:0.33277869 226:0.20820628 227:0.30175483 228:0.36712164 229:0.36712164 230:0.36712164 231:0.36712164 232:0.36712164 233:0.36712164 234:0.23077382 235:0.34800205 236:0.34800205 237:0.34800205 238:0.23417497 239:0.34800205 240:0.34800205 241:0.34800205 242:0.30650803 243:0.34800205 244:0.33277869 245:0.33277869 246:0.33277869 247:0.33277869 248:0.33277869 249:0.33277869 250:0.33277869 251:0.33277869 252:0.33277869 253:0.33433962 254:0.31999299 255:0.33433962 256:0.33433962 257:0.33433962 258:0.33433962 259:0.33433962 260:0.33433962 261:0.33433962 262:0.33847579 263:0.33847579 264:0.33847579 265:0.28300384 266:0.33847579 267:0.33847579 268:0.33847579 269:0.33847579 270:0.33847579 271:0.34918532 272:0.25405374 273:0.28009856 274:0.34918532 275:0.34918532 276:0.34918532 277:0.34918532 278:0.34918532 279:0.34918532 280:0.3631379 281:0.3631379 282:0.3631379 283:0.24538629 284:0.26439887 285:0.29688805 286:0.34461942 287:0.3631379 288:0.3631379 289:0.37913606 290:0.37913606 291:0.37913606 292:0.37913606 293:0.37913606 294:0.24632558 295:0.13673612 296:0.23318315 297:0.37913606 298:0.36173201 299:0.36173201 300:0.36173201 301:0.3387579 302:0.2522637 303:0.18136057 304:0.36173201 305:0.36173201 306:0.36173201 307:0.34037286 308:0.34037286 309:0.34037286 310:0.34037286 311:0.31572813 312:0.29315412 313:0.34037286 314:0.34037286 315:0.34037286 316:0.35501614 317:0.35501614 318:0.35501614 319:0.29365656 320:0.22487924 321:0.32761112 322:0.34948078 323:0.35501614 324:0.35501614 325:0.37252107 326:0.27056041 327:0.2362289 328:0.18611717 329:0.37252107 330:0.37252107 331:0.37252107 332:0.37252107 333:0.37252107 334:0.35520718 335:0.35520718 336:0.35520718 337:0.35520718 338:0.35520718 339:0.35520718 340:0.28150737 341:0.18439052 342:0.35520718 343:0.36238781 344:0.36238781 345:0.36238781 346:0.36238781 347:0.36238781 348:0.16905566 349:0.24471612 350:0.34635854 351:0.36238781 352:0.33885521 353:0.33885521 354:0.33885521 355:0.33885521 356:0.33885521 357:0.33885521 358:0.30309197 359:0.31778872 360:0.33885521 361:0.20820628 362:0.30175483 363:0.36712164 364:0.36712164 365:0.36712164 366:0.36712164 367:0.36712164 368:0.36712164 369:0.23077382 370:0.34800205 371:0.34800205 372:0.34800205 373:0.23417497 374:0.34800205 375:0.34800205 376:0.34800205 377:0.30650803 378:0.34800205 379:0.33277869 380:0.33277869 381:0.33277869 382:0.33277869 383:0.33277869 384:0.33277869 385:0.33277869 386:0.33277869 387:0.33277869 388:0.36144063 389:0.36144063 390:0.36144063 391:0.36144063 392:0.36144063 393:0.33112231 394:0.22492835 395:0.22873145 396:0.36144063 397:0.33847579 398:0.33847579 399:0.33847579 400:0.28300384 401:0.33847579 402:0.33847579 403:0.33847579 404:0.33847579 405:0.33847579 406:0.34918532 407:0.25405374 408:0.28009856 409:0.34918532 410:0.34918532 411:0.34918532 412:0.34918532 413:0.34918532 414:0.34918532 415:0.3631379 416:0.3631379 417:0.3631379 418:0.24538629 419:0.26439887 420:0.29688805 421:0.34461942 422:0.3631379 423:0.3631379 424:0.26590186 425:0.12430422 426:0.37067148 427:0.37250859 428:0.37250859 429:0.37250859 430:0.37250859 431:0.28091356 432:0.37250859 433:0.36173201 434:0.36173201 435:0.36173201 436:0.3387579 437:0.2522637 438:0.18136057 439:0.36173201 440:0.36173201 441:0.36173201 442:0.34037286 443:0.34037286 444:0.34037286 445:0.34037286 446:0.31572813 447:0.29315412 448:0.34037286 449:0.34037286 450:0.34037286 451:0.35501614 452:0.35501614 453:0.35501614 454:0.29365656 455:0.22487924 456:0.32761112 457:0.34948078 458:0.35501614 459:0.35501614 460:0.34119019 461:0.34119019 462:0.34119019 463:0.34119019 464:0.34119019 465:0.32285097 466:0.34119019 467:0.27835768 468:0.34119019 469:0.35520718 470:0.35520718 471:0.35520718 472:0.35520718 473:0.35520718 474:0.35520718 475:0.28150737 476:0.18439052 477:0.35520718 478:0.36238781 479:0.36238781 480:0.36238781 481:0.36238781 482:0.36238781 483:0.16905566 484:0.24471612 485:0.34635854 486:0.36238781 487:0.33885521 488:0.33885521 489:0.33885521 490:0.33885521 491:0.33885521 492:0.33885521 493:0.30309197 494:0.31778872 495:0.33885521 496:0.35375276 497:0.35375276 498:0.35375276 499:0.35375276 500:0.26921457 501:0.27373052 502:0.31339231 503:0.35375276 504:0.35375276 505:0.34800205 506:0.34800205 507:0.34800205 508:0.23417497 509:0.34800205 510:0.34800205 511:0.34800205 512:0.30650803 513:0.34800205 514:0.33277869 515:0.33277869 516:0.33277869 517:0.33277869 518:0.33277869 519:0.33277869 520:0.33277869 521:0.33277869 522:0.33277869 523:0.36144063 524:0.36144063 525:0.36144063 526:0.36144063 527:0.36144063 528:0.33112231 529:0.22492835 530:0.22873145 531:0.36144063 532:0.39790565 533:0.39790565 534:0.39790565 535:0.39790565 536:0.24340962 537:0.13636047 538:0.16879155 539:0.31312537 540:0.39790565 541:0.34918532 542:0.25405374 543:0.28009856 544:0.34918532 545:0.34918532 546:0.34918532 547:0.34918532 548:0.34918532 549:0.34918532 550:0.3631379 551:0.3631379 552:0.3631379 553:0.24538629 554:0.26439887 555:0.29688805 556:0.34461942 557:0.3631379 558:0.3631379 559:0.26590186 560:0.12430422 561:0.37067148 562:0.37250859 563:0.37250859 564:0.37250859 565:0.37250859 566:0.28091356 567:0.37250859 568:0.35083842 569:0.26373696 570:0.25558615 571:0.35083842 572:0.35083842 573:0.35083842 574:0.35083842 575:0.35083842 576:0.35083842 577:0.34037286 578:0.34037286 579:0.34037286 580:0.34037286 581:0.31572813 582:0.29315412 583:0.34037286 584:0.34037286 585:0.34037286 586:0.35501614 587:0.35501614 588:0.35501614 589:0.29365656 590:0.22487924 591:0.32761112 592:0.34948078 593:0.35501614 594:0.35501614 595:0.34119019 596:0.34119019 597:0.34119019 598:0.34119019 599:0.34119019 600:0.32285097 601:0.34119019 602:0.27835768 603:0.34119019 604:0.3368983 605:0.3368983 606:0.3368983 607:0.3368983 608:0.3368983 609:0.3368983 610:0.32134426 611:0.31443363 612:0.3368983 613:0.36238781 614:0.36238781 615:0.36238781 616:0.36238781 617:0.36238781 618:0.16905566 619:0.24471612 620:0.34635854 621:0.36238781 622:0.33885521 623:0.33885521 624:0.33885521 625:0.33885521 626:0.33885521 627:0.33885521 628:0.30309197 629:0.31778872 630:0.33885521 631:0.35375276 632:0.35375276 633:0.35375276 634:0.35375276 635:0.26921457 636:0.27373052 637:0.31339231 638:0.35375276 639:0.35375276 640:0.33277869 641:0.33277869 642:0.33277869 643:0.33277869 644:0.33277869 645:0.33277869 646:0.33277869 647:0.33277869 648:0.33277869 649:0.33277869 650:0.33277869 651:0.33277869 652:0.33277869 653:0.33277869 654:0.33277869 655:0.33277869 656:0.33277869 657:0.33277869 658:0.36144063 659:0.36144063 660:0.36144063 661:0.36144063 662:0.36144063 663:0.33112231 664:0.22492835 665:0.22873145 666:0.36144063 667:0.39790565 668:0.39790565 669:0.39790565 670:0.39790565 671:0.24340962 672:0.13636047 673:0.16879155 674:0.31312537 675:0.39790565 676:0.33232284 677:0.33283553 678:0.33283553 679:0.33283553 680:0.33283553 681:0.33283553 682:0.33283553 683:0.33283553 684:0.33283553 685:0.3631379 686:0.3631379 687:0.3631379 688:0.24538629 689:0.26439887 690:0.29688805 691:0.34461942 692:0.3631379 693:0.3631379 694:0.26590186 695:0.12430422 696:0.37067148 697:0.37250859 698:0.37250859 699:0.37250859 700:0.37250859 701:0.28091356 702:0.37250859 703:0.35083842 704:0.26373696 705:0.25558615 706:0.35083842 707:0.35083842 708:0.35083842 709:0.35083842 710:0.35083842 711:0.35083842 712:0.33787349 713:0.33787349 714:0.33787349 715:0.33787349 716:0.33787349 717:0.33787349 718:0.33787349 719:0.28871453 720:0.33787349 
0.3263837121756905 1:0.45980787 2:0.45980787 3:0.45980787 4:0.29985011 5:0.13023619 6:0.0027164628 7:0.048859589 8:0.20111637 9:0.45980787 10:0.55373365 11:0.55373365 12:0.11273049 13:0.059620701 14:0.032615926 15:0.063923515 16:0.14591008 17:0.17861952 18:0.55373365 19:0.47093534 20:0.47093534 21:0.47093534 22:0.22220184 23:0.070685893 24:0.033235807 25:0.083726414 26:0.21375462 27:0.47093534 28:0.35367635 29:0.15257753 30:0.070461556 31:0.10687643 32:0.31212035 33:0.42823729 34:0.42823729 35:0.42823729 36:0.42823729 37:0.50851554 38:0.50851554 39:0.4197399 40:0.10621214 41:0.039933491 42:0.027832575 43:0.034231484 44:0.16779026 45:0.50851554 46:0.59035605 47:0.59035605 48:0.33825499 49:0.043060672 50:0.00027950873 51:0.0050709248 52:0.020931171 53:0.08777079 54:0.41548336 55:0.51346391 56:0.51346391 57:0.39172485 58:0.0090806773 59:0.0072192508 60:0.011580563 61:0.072583757 62:0.21201609 63:0.51346391 64:0.42279163 65:0.42279163 66:0.42195609 67:0.23189342 68:0.13158976 69:0.093641698 70:0.15119258 71:0.42279163 72:0.42279163 73:0.37926343 74:0.37926343 75:0.36092854 76:0.17530464 77:0.1865707 78:0.28495181 79:0.37926343 80:0.37926343 81:0.37926343 82:0.39941269 83:0.39941269 84:0.39941269 85:0.38941914 86:0.064571612 87:0.056531388 88:0.25975958 89:0.36249164 90:0.39941269 91:0.47833672 92:0.47833672 93:0.39748201 94:0.11338883 95:0.019016277 96:0.031340383 97:0.064014003 98:0.36402413 99:0.47833672 100:0.50269306 101:0.28634757 102:0.032295849 103:0.017194159 104:0.15073264 105:0.14896674 106:0.32959622 107:0.50269306 108:0.50269306 109:0.37914535 110:0.37914535 111:0.37914535 112:0.37914535 113:0.30100098 114:0.10240634 115:0.18059982 116:0.37914535 117:0.37914535 118:0.47834405 119:0.47834405 120:0.4147501 121:0.18868969 122:0.20692499 123:0.038863208 124:0.11958765 125:0.20623328 126:0.47834405 127:0.5338825 128:0.5338825 129:0.37751094 130:0.21129902 131:0.14005141 132:0.010704703 133:0.015068775 134:0.029368022 135:0.46543199 136:0.5222519 137:0.5222519 138:0.1706976 139:0.038544767 140:0.098738164 141:0.11760657 142:0.098004021 143:0.33575952 144:0.5222519 145:0.55373365 146:0.55373365 147:0.11273049 148:0.059620701 149:0.032615926 150:0.063923515 151:0.14591008 152:0.17861952 153:0.55373365 154:0.47093534 155:0.47093534 156:0.47093534 157:0.22220184 158:0.070685893 159:0.033235807 160:0.083726414 161:0.21375462 162:0.47093534 163:0.35367635 164:0.15257753 165:0.070461556 166:0.10687643 167:0.31212035 168:0.42823729 169:0.42823729 170:0.42823729 171:0.42823729 172:0.18065241 173:0.35814366 174:0.35814366 175:0.35814366 176:0.35814366 177:0.35814366 178:0.35814366 179:0.35814366 180:0.25674567 181:0.59035605 182:0.59035605 183:0.33825499 184:0.043060672 185:0.00027950873 186:0.0050709248 187:0.020931171 188:0.08777079 189:0.41548336 190:0.51346391 191:0.51346391 192:0.39172485 193:0.0090806773 194:0.0072192508 195:0.011580563 196:0.072583757 197:0.21201609 198:0.51346391 199:0.42279163 200:0.42279163 201:0.42195609 202:0.23189342 203:0.13158976 204:0.093641698 205:0.15119258 206:0.42279163 207:0.42279163 208:0.37936315 209:0.25489682 210:0.22481444 211:0.37936315 212:0.37936315 213:0.37936315 214:0.37936315 215:0.23825029 216:0.32303357 217:0.39941269 218:0.39941269 219:0.39941269 220:0.38941914 221:0.064571612 222:0.056531388 223:0.25975958 224:0.36249164 225:0.39941269 226:0.47833672 227:0.47833672 228:0.39748201 229:0.11338883 230:0.019016277 231:0.031340383 232:0.064014003 233:0.36402413 234:0.47833672 235:0.50269306 236:0.28634757 237:0.032295849 238:0.017194159 239:0.15073264 240:0.14896674 241:0.32959622 242:0.50269306 243:0.50269306 244:0.53595579 245:0.53595579 246:0.21975988 247:0.18216988 248:0.078756183 249:0.011536812 250:0.055107858 251:0.20505884 252:0.53595579 253:0.47834405 254:0.47834405 255:0.4147501 256:0.18868969 257:0.20692499 258:0.038863208 259:0.11958765 260:0.20623328 261:0.47834405 262:0.5338825 263:0.5338825 264:0.37751094 265:0.21129902 266:0.14005141 267:0.010704703 268:0.015068775 269:0.029368022 270:0.46543199 271:0.5222519 272:0.5222519 273:0.1706976 274:0.038544767 275:0.098738164 276:0.11760657 277:0.098004021 278:0.33575952 279:0.5222519 280:0.40934464 281:0.40934464 282:0.39881387 283:0.21820599 284:0.19137576 285:0.11718498 286:0.26198357 287:0.40934464 288:0.40934464 289:0.47093534 290:0.47093534 291:0.47093534 292:0.22220184 293:0.070685893 294:0.033235807 295:0.083726414 296:0.21375462 297:0.47093534 298:0.35367635 299:0.15257753 300:0.070461556 301:0.10687643 302:0.31212035 303:0.42823729 304:0.42823729 305:0.42823729 306:0.42823729 307:0.18065241 308:0.35814366 309:0.35814366 310:0.35814366 311:0.35814366 312:0.35814366 313:0.35814366 314:0.35814366 315:0.25674567 316:0.36916366 317:0.36916366 318:0.36916366 319:0.20646475 320:0.17583477 321:0.3241533 322:0.36916366 323:0.36916366 324:0.36916366 325:0.51346391 326:0.51346391 327:0.39172485 328:0.0090806773 329:0.0072192508 330:0.011580563 331:0.072583757 332:0.21201609 333:0.51346391 334:0.42279163 335:0.42279163 336:0.42195609 337:0.23189342 338:0.13158976 339:0.093641698 340:0.15119258 341:0.42279163 342:0.42279163 343:0.37936315 344:0.25489682 345:0.22481444 346:0.37936315 347:0.37936315 348:0.37936315 349:0.37936315 350:0.23825029 351:0.32303357 352:0.15213844 353:0.34436044 354:0.36234483 355:0.36234483 356:0.36234483 357:0.36234483 358:0.36234483 359:0.31077993 360:0.31874207 361:0.47833672 362:0.47833672 363:0.39748201 364:0.11338883 365:0.019016277 366:0.031340383 367:0.064014003 368:0.36402413 369:0.47833672 370:0.50269306 371:0.28634757 372:0.032295849 373:0.017194159 374:0.15073264 375:0.14896674 376:0.32959622 377:0.50269306 378:0.50269306 379:0.53595579 380:0.53595579 381:0.21975988 382:0.18216988 383:0.078756183 384:0.011536812 385:0.055107858 386:0.20505884 387:0.53595579 388:0.37636527 389:0.37636527 390:0.37636527 391:0.27417439 392:0.16918406 393:0.20754014 394:0.37565699 395:0.37636527 396:0.37636527 397:0.5338825 398:0.5338825 399:0.37751094 400:0.21129902 401:0.14005141 402:0.010704703 403:0.015068775 404:0.029368022 405:0.46543199 406:0.5222519 407:0.5222519 408:0.1706976 409:0.038544767 410:0.098738164 411:0.11760657 412:0.098004021 413:0.33575952 414:0.5222519 415:0.40934464 416:0.40934464 417:0.39881387 418:0.21820599 419:0.19137576 420:0.11718498 421:0.26198357 422:0.40934464 423:0.40934464 424:0.38881424 425:0.38881424 426:0.20641385 427:0.30409577 428:0.32343844 429:0.25710899 430:0.29259378 431:0.38881424 432:0.38881424 433:0.35367635 434:0.15257753 435:0.070461556 436:0.10687643 437:0.31212035 438:0.42823729 439:0.42823729 440:0.42823729 441:0.42823729 442:0.18065241 443:0.35814366 444:0.35814366 445:0.35814366 446:0.35814366 447:0.35814366 448:0.35814366 449:0.35814366 450:0.25674567 451:0.36916366 452:0.36916366 453:0.36916366 454:0.20646475 455:0.17583477 456:0.3241533 457:0.36916366 458:0.36916366 459:0.36916366 460:0.12196475 461:0.21943359 462:0.41081855 463:0.41081855 464:0.41081855 465:0.41081855 466:0.41081855 467:0.24347785 468:0.17242047 469:0.42279163 470:0.42279163 471:0.42195609 472:0.23189342 473:0.13158976 474:0.093641698 475:0.15119258 476:0.42279163 477:0.42279163 478:0.37936315 479:0.25489682 480:0.22481444 481:0.37936315 482:0.37936315 483:0.37936315 484:0.37936315 485:0.23825029 486:0.32303357 487:0.15213844 488:0.34436044 489:0.36234483 490:0.36234483 491:0.36234483 492:0.36234483 493:0.36234483 494:0.31077993 495:0.31874207 496:0.55336565 497:0.55336565 498:0.16984843 499:0.018177476 500:0.031848423 501:0.064482868 502:0.034927152 503:0.20065419 504:0.55336565 505:0.50269306 506:0.28634757 507:0.032295849 508:0.017194159 509:0.15073264 510:0.14896674 511:0.32959622 512:0.50269306 513:0.50269306 514:0.53595579 515:0.53595579 516:0.21975988 517:0.18216988 518:0.078756183 519:0.011536812 520:0.055107858 521:0.20505884 522:0.53595579 523:0.37636527 524:0.37636527 525:0.37636527 526:0.27417439 527:0.16918406 528:0.20754014 529:0.37565699 530:0.37636527 531:0.37636527 532:0.3669537 533:0.35099885 534:0.3669537 535:0.3669537 536:0.15033241 537:0.22453125 538:0.35615245 539:0.3669537 540:0.3669537 541:0.5222519 542:0.5222519 543:0.1706976 544:0.038544767 545:0.098738164 546:0.11760657 547:0.098004021 548:0.33575952 549:0.5222519 550:0.40934464 551:0.40934464 552:0.39881387 553:0.21820599 554:0.19137576 555:0.11718498 556:0.26198357 557:0.40934464 558:0.40934464 559:0.38881424 560:0.38881424 561:0.20641385 562:0.30409577 563:0.32343844 564:0.25710899 565:0.29259378 566:0.38881424 567:0.38881424 568:0.46416184 569:0.46416184 570:0.39582959 571:0.20885979 572:0.088901773 573:0.092214838 574:0.13990535 575:0.33576941 576:0.46416184 577:0.18065241 578:0.35814366 579:0.35814366 580:0.35814366 581:0.35814366 582:0.35814366 583:0.35814366 584:0.35814366 585:0.25674567 586:0.36916366 587:0.36916366 588:0.36916366 589:0.20646475 590:0.17583477 591:0.3241533 592:0.36916366 593:0.36916366 594:0.36916366 595:0.12196475 596:0.21943359 597:0.41081855 598:0.41081855 599:0.41081855 600:0.41081855 601:0.41081855 602:0.24347785 603:0.17242047 604:0.33277869 605:0.33277869 606:0.33277869 607:0.33277869 608:0.33277869 609:0.33277869 610:0.33277869 611:0.33277869 612:0.33277869 613:0.37936315 614:0.25489682 615:0.22481444 616:0.37936315 617:0.37936315 618:0.37936315 619:0.37936315 620:0.23825029 621:0.32303357 622:0.15213844 623:0.34436044 624:0.36234483 625:0.36234483 626:0.36234483 627:0.36234483 628:0.36234483 629:0.31077993 630:0.31874207 631:0.55336565 632:0.55336565 633:0.16984843 634:0.018177476 635:0.031848423 636:0.064482868 637:0.034927152 638:0.20065419 639:0.55336565 640:0.52986956 641:0.23889776 642:0.21046394 643:0.1046947 644:0.054128155 645:0.069541737 646:0.17980266 647:0.52986956 648:0.52986956 649:0.53595579 650:0.53595579 651:0.21975988 652:0.18216988 653:0.078756183 654:0.011536812 655:0.055107858 656:0.20505884 657:0.53595579 658:0.37636527 659:0.37636527 660:0.37636527 661:0.27417439 662:0.16918406 663:0.20754014 664:0.37565699 665:0.37636527 666:0.37636527 667:0.3669537 668:0.35099885 669:0.3669537 670:0.3669537 671:0.15033241 672:0.22453125 673:0.35615245 674:0.3669537 675:0.3669537 676:0.42476732 677:0.39512235 678:0.1857478 679:0.083129756 680:0.1823085 681:0.20803103 682:0.42476732 683:0.42476732 684:0.42476732 685:0.40934464 686:0.40934464 687:0.39881387 688:0.21820599 689:0.19137576 690:0.11718498 691:0.26198357 692:0.40934464 693:0.40934464 694:0.38881424 695:0.38881424 696:0.20641385 697:0.30409577 698:0.32343844 699:0.25710899 700:0.29259378 701:0.38881424 702:0.38881424 703:0.46416184 704:0.46416184 705:0.39582959 706:0.20885979 707:0.088901773 708:0.092214838 709:0.13990535 710:0.33576941 711:0.46416184 712:0.52993381 713:0.28289062 714:0.1000023 715:0.13212794 716:0.30382264 717:0.18063731 718:0.18919075 719:0.40599439 720:0.52993381 
0.2176451179817503 1:0.092901282 2:0.035861056 3:0.095057063 4:0.40766913 5:0.48977074 6:0.48977074 7:0.48977074 8:0.29530677 9:0.055940706 10:0.1099738 11:0.054408461 12:0.11464658 13:0.14866742 14:0.29381335 15:0.51599538 16:0.51599538 17:0.51599538 18:0.24385759 19:0.11030919 20:0.064966626 21:0.18159412 22:0.40954062 23:0.40954062 24:0.40954062 25:0.40954062 26:0.40954062 27:0.32852098 28:0.37135586 29:0.37135586 30:0.37135586 31:0.37135586 32:0.23206219 33:0.16110457 34:0.29841435 35:0.37135586 36:0.37135586 37:0.42314845 38:0.18543026 39:0.11768521 40:0.093545377 41:0.2086024 42:0.42314845 43:0.42314845 44:0.42314845 45:0.42314845 46:0.04531125 47:0.072121792 48:0.23090023 49:0.24977751 50:0.52083856 51:0.52083856 52:0.52083856 53:0.21588363 54:0.10684526 55:0.21467306 56:0.059022047 57:0.089243695 58:0.17808366 59:0.13084321 60:0.48920837 61:0.48920837 62:0.48920837 63:0.41324693 64:0.3426275 65:0.3426275 66:0.3426275 67:0.30631918 68:0.28458747 69:0.3426275 70:0.3426275 71:0.3426275 72:0.3426275 73:0.33277869 74:0.33277869 75:0.33277869 76:0.33277869 77:0.33277869 78:0.33277869 79:0.33277869 80:0.33277869 81:0.33277869 82:0.36303866 83:0.27228945 84:0.21384977 85:0.35448143 86:0.30307952 87:0.36303866 88:0.36303866 89:0.36303866 90:0.36303866 91:0.33581778 92:0.30733687 93:0.33581778 94:0.33581778 95:0.33581778 96:0.33581778 97:0.33581778 98:0.33581778 99:0.33581778 100:0.37521362 101:0.37521362 102:0.37342989 103:0.27371344 104:0.090072662 105:0.26427814 106:0.37521362 107:0.37521362 108:0.37521362 109:0.21299994 110:0.47400093 111:0.47400093 112:0.47400093 113:0.44322136 114:0.19098267 115:0.12929529 116:0.069273926 117:0.14639036 118:0.10658707 119:0.22757277 120:0.39568686 121:0.45157328 122:0.45157328 123:0.45157328 124:0.2956309 125:0.2692734 126:0.064108998 127:0.4316164 128:0.4316164 129:0.4316164 130:0.11960905 131:0.076335751 132:0.079393931 133:0.19439134 134:0.4316164 135:0.4316164 136:0.52799225 137:0.23569816 138:0.1144579 139:0.030642906 140:0.030177139 141:0.066145778 142:0.28899908 143:0.52799225 144:0.52799225 145:0.1099738 146:0.054408461 147:0.11464658 148:0.14866742 149:0.29381335 150:0.51599538 151:0.51599538 152:0.51599538 153:0.24385759 154:0.11030919 155:0.064966626 156:0.18159412 157:0.40954062 158:0.40954062 159:0.40954062 160:0.40954062 161:0.40954062 162:0.32852098 163:0.37135586 164:0.37135586 165:0.37135586 166:0.37135586 167:0.23206219 168:0.16110457 169:0.29841435 170:0.37135586 171:0.37135586 172:0.56636769 173:0.56636769 174:0.095744297 175:0.017367002 176:0.037947137 177:0.036560982 178:0.040416982 179:0.13471645 180:0.56636769 181:0.04531125 182:0.072121792 183:0.23090023 184:0.24977751 185:0.52083856 186:0.52083856 187:0.52083856 188:0.21588363 189:0.10684526 190:0.21467306 191:0.059022047 192:0.089243695 193:0.17808366 194:0.13084321 195:0.48920837 196:0.48920837 197:0.48920837 198:0.41324693 199:0.3426275 200:0.3426275 201:0.3426275 202:0.30631918 203:0.28458747 204:0.3426275 205:0.3426275 206:0.3426275 207:0.3426275 208:0.46453854 209:0.46453854 210:0.46453854 211:0.46453854 212:0.14426173 213:0.11501767 214:0.086177275 215:0.10011407 216:0.28405273 217:0.36303866 218:0.27228945 219:0.21384977 220:0.35448143 221:0.30307952 222:0.36303866 223:0.36303866 224:0.36303866 225:0.36303866 226:0.33581778 227:0.30733687 228:0.33581778 229:0.33581778 230:0.33581778 231:0.33581778 232:0.33581778 233:0.33581778 234:0.33581778 235:0.37521362 236:0.37521362 237:0.37342989 238:0.27371344 239:0.090072662 240:0.26427814 241:0.37521362 242:0.37521362 243:0.37521362 244:0.48287725 245:0.48287725 246:0.18801925 247:0.05745342 248:0.038415916 249:0.05800055 250:0.1378524 251:0.48287725 252:0.48287725 253:0.10658707 254:0.22757277 255:0.39568686 256:0.45157328 257:0.45157328 258:0.45157328 259:0.2956309 260:0.2692734 261:0.064108998 262:0.4316164 263:0.4316164 264:0.4316164 265:0.11960905 266:0.076335751 267:0.079393931 268:0.19439134 269:0.4316164 270:0.4316164 271:0.52799225 272:0.23569816 273:0.1144579 274:0.030642906 275:0.030177139 276:0.066145778 277:0.28899908 278:0.52799225 279:0.52799225 280:0.34591708 281:0.34591708 282:0.34591708 283:0.34591708 284:0.31620798 285:0.24278823 286:0.34591708 287:0.34591708 288:0.34591708 289:0.11030919 290:0.064966626 291:0.18159412 292:0.40954062 293:0.40954062 294:0.40954062 295:0.40954062 296:0.40954062 297:0.32852098 298:0.37135586 299:0.37135586 300:0.37135586 301:0.37135586 302:0.23206219 303:0.16110457 304:0.29841435 305:0.37135586 306:0.37135586 307:0.56636769 308:0.56636769 309:0.095744297 310:0.017367002 311:0.037947137 312:0.036560982 313:0.040416982 314:0.13471645 315:0.56636769 316:0.35513017 317:0.35513017 318:0.27815306 319:0.1904227 320:0.35513017 321:0.35513017 322:0.35513017 323:0.35513017 324:0.35513017 325:0.21467306 326:0.059022047 327:0.089243695 328:0.17808366 329:0.13084321 330:0.48920837 331:0.48920837 332:0.48920837 333:0.41324693 334:0.3426275 335:0.3426275 336:0.3426275 337:0.30631918 338:0.28458747 339:0.3426275 340:0.3426275 341:0.3426275 342:0.3426275 343:0.46453854 344:0.46453854 345:0.46453854 346:0.46453854 347:0.14426173 348:0.11501767 349:0.086177275 350:0.10011407 351:0.28405273 352:0.5073387 353:0.5073387 354:0.5073387 355:0.24284163 356:0.16698672 357:0.082638122 358:0.12605046 359:0.22716512 360:0.24814697 361:0.33581778 362:0.30733687 363:0.33581778 364:0.33581778 365:0.33581778 366:0.33581778 367:0.33581778 368:0.33581778 369:0.33581778 370:0.37521362 371:0.37521362 372:0.37342989 373:0.27371344 374:0.090072662 375:0.26427814 376:0.37521362 377:0.37521362 378:0.37521362 379:0.48287725 380:0.48287725 381:0.18801925 382:0.05745342 383:0.038415916 384:0.05800055 385:0.1378524 386:0.48287725 387:0.48287725 388:0.36868736 389:0.27536404 390:0.26127142 391:0.21603042 392:0.35483444 393:0.36868736 394:0.36868736 395:0.36868736 396:0.36868736 397:0.4316164 398:0.4316164 399:0.4316164 400:0.11960905 401:0.076335751 402:0.079393931 403:0.19439134 404:0.4316164 405:0.4316164 406:0.52799225 407:0.23569816 408:0.1144579 409:0.030642906 410:0.030177139 411:0.066145778 412:0.28899908 413:0.52799225 414:0.52799225 415:0.34591708 416:0.34591708 417:0.34591708 418:0.34591708 419:0.31620798 420:0.24278823 421:0.34591708 422:0.34591708 423:0.34591708 424:0.34828958 425:0.34828958 426:0.31724238 427:0.34828958 428:0.32807118 429:0.24579045 430:0.34828958 431:0.34828958 432:0.34828958 433:0.37135586 434:0.37135586 435:0.37135586 436:0.37135586 437:0.23206219 438:0.16110457 439:0.29841435 440:0.37135586 441:0.37135586 442:0.56636769 443:0.56636769 444:0.095744297 445:0.017367002 446:0.037947137 447:0.036560982 448:0.040416982 449:0.13471645 450:0.56636769 451:0.35513017 452:0.35513017 453:0.27815306 454:0.1904227 455:0.35513017 456:0.35513017 457:0.35513017 458:0.35513017 459:0.35513017 460:0.4254702 461:0.4254702 462:0.4254702 463:0.3737016 464:0.23860019 465:0.15227115 466:0.10335308 467:0.20297523 468:0.4254702 469:0.3426275 470:0.3426275 471:0.3426275 472:0.30631918 473:0.28458747 474:0.3426275 475:0.3426275 476:0.3426275 477:0.3426275 478:0.46453854 479:0.46453854 480:0.46453854 481:0.46453854 482:0.14426173 483:0.11501767 484:0.086177275 485:0.10011407 486:0.28405273 487:0.5073387 488:0.5073387 489:0.5073387 490:0.24284163 491:0.16698672 492:0.082638122 493:0.12605046 494:0.22716512 495:0.24814697 496:0.53081638 497:0.56423736 498:0.56423736 499:0.24998365 500:0.042711586 501:0.032453243 502:0.022901716 503:0.044447061 504:0.089456826 505:0.37521362 506:0.37521362 507:0.37342989 508:0.27371344 509:0.090072662 510:0.26427814 511:0.37521362 512:0.37521362 513:0.37521362 514:0.48287725 515:0.48287725 516:0.18801925 517:0.05745342 518:0.038415916 519:0.05800055 520:0.1378524 521:0.48287725 522:0.48287725 523:0.36868736 524:0.27536404 525:0.26127142 526:0.21603042 527:0.35483444 528:0.36868736 529:0.36868736 530:0.36868736 531:0.36868736 532:0.46579012 533:0.41247806 534:0.056807887 535:0.01762153 536:0.033894304 537:0.080917165 538:0.40384874 539:0.46579012 540:0.46579012 541:0.52799225 542:0.23569816 543:0.1144579 544:0.030642906 545:0.030177139 546:0.066145778 547:0.28899908 548:0.52799225 549:0.52799225 550:0.34591708 551:0.34591708 552:0.34591708 553:0.34591708 554:0.31620798 555:0.24278823 556:0.34591708 557:0.34591708 558:0.34591708 559:0.34828958 560:0.34828958 561:0.31724238 562:0.34828958 563:0.32807118 564:0.24579045 565:0.34828958 566:0.34828958 567:0.34828958 568:0.31548828 569:0.40031573 570:0.40031573 571:0.40031573 572:0.40031573 573:0.39425051 574:0.21800567 575:0.16619599 576:0.15772189 577:0.56636769 578:0.56636769 579:0.095744297 580:0.017367002 581:0.037947137 582:0.036560982 583:0.040416982 584:0.13471645 585:0.56636769 586:0.35513017 587:0.35513017 588:0.27815306 589:0.1904227 590:0.35513017 591:0.35513017 592:0.35513017 593:0.35513017 594:0.35513017 595:0.4254702 596:0.4254702 597:0.4254702 598:0.3737016 599:0.23860019 600:0.15227115 601:0.10335308 602:0.20297523 603:0.4254702 604:0.33277869 605:0.33277869 606:0.33277869 607:0.33277869 608:0.33277869 609:0.33277869 610:0.33277869 611:0.33277869 612:0.33277869 613:0.46453854 614:0.46453854 615:0.46453854 616:0.46453854 617:0.14426173 618:0.11501767 619:0.086177275 620:0.10011407 621:0.28405273 622:0.5073387 623:0.5073387 624:0.5073387 625:0.24284163 626:0.16698672 627:0.082638122 628:0.12605046 629:0.22716512 630:0.24814697 631:0.53081638 632:0.56423736 633:0.56423736 634:0.24998365 635:0.042711586 636:0.032453243 637:0.022901716 638:0.044447061 639:0.089456826 640:0.37680921 641:0.37680921 642:0.37680921 643:0.37680921 644:0.37680921 645:0.28644523 646:0.29370481 647:0.16041471 648:0.30374897 649:0.48287725 650:0.48287725 651:0.18801925 652:0.05745342 653:0.038415916 654:0.05800055 655:0.1378524 656:0.48287725 657:0.48287725 658:0.36868736 659:0.27536404 660:0.26127142 661:0.21603042 662:0.35483444 663:0.36868736 664:0.36868736 665:0.36868736 666:0.36868736 667:0.46579012 668:0.41247806 669:0.056807887 670:0.01762153 671:0.033894304 672:0.080917165 673:0.40384874 674:0.46579012 675:0.46579012 676:0.45539504 677:0.45539504 678:0.45539504 679:0.45539504 680:0.28448978 681:0.10887694 682:0.13013685 683:0.12586612 684:0.20086353 685:0.34591708 686:0.34591708 687:0.34591708 688:0.34591708 689:0.31620798 690:0.24278823 691:0.34591708 692:0.34591708 693:0.34591708 694:0.34828958 695:0.34828958 696:0.31724238 697:0.34828958 698:0.32807118 699:0.24579045 700:0.34828958 701:0.34828958 702:0.34828958 703:0.31548828 704:0.40031573 705:0.40031573 706:0.40031573 707:0.40031573 708:0.39425051 709:0.21800567 710:0.16619599 711:0.15772189 712:0.37522897 713:0.28973341 714:0.37522897 715:0.37522897 716:0.37522897 717:0.28527141 718:0.20364611 719:0.29235297 720:0.37522897 
0.2169213720510838 1:0.47509906 2:0.47509906 3:0.47509906 4:0.13296959 5:0.13602014 6:0.070405215 7:0.043519609 8:0.22213732 9:0.47509906 10:0.37030962 11:0.37030962 12:0.37030962 13:0.37030962 14:0.37030962 15:0.19075279 16:0.16290316 17:0.3325673 18:0.37030962 19:0.083041213 20:0.29749647 21:0.43351442 22:0.43351442 23:0.43351442 24:0.43351442 25:0.31530547 26:0.15775332 27:0.1556502 28:0.0028038591 29:0.068502501 30:0.28758135 31:0.53638041 32:0.53638041 33:0.53042758 34:0.19901349 35:0.10341901 36:0.013293837 37:0.2351393 38:0.36791611 39:0.36791611 40:0.36791611 41:0.36791611 42:0.36791611 43:0.36791611 44:0.18965845 45:0.30477831 46:0.052568723 47:0.39948505 48:0.51568812 49:0.51568812 50:0.51568812 51:0.15370479 52:0.051412296 53:0.058579754 54:0.070677735 55:0.14857936 56:0.18372166 57:0.25468174 58:0.4770076 59:0.4770076 60:0.4770076 61:0.28122973 62:0.22821862 63:0.24649699 64:0.015683085 65:0.05434953 66:0.56021857 67:0.56021857 68:0.56021857 69:0.21672949 70:0.037608989 71:0.024946937 72:0.025742523 73:0.43614605 74:0.47051716 75:0.47051716 76:0.47051716 77:0.28499418 78:0.17319596 79:0.059416924 80:0.081432782 81:0.13977724 82:0.022190042 83:0.067370713 84:0.2709612 85:0.54766595 86:0.54766595 87:0.54766595 88:0.10876497 89:0.062922344 90:0.021831388 91:0.020998076 92:0.11684192 93:0.26160324 94:0.63722366 95:0.63722366 96:0.30659592 97:0.059124108 98:0.036496956 99:0.01311649 100:0.050668895 101:0.17953077 102:0.57408929 103:0.57408929 104:0.49716428 105:0.19721071 106:0.094658874 107:0.0688283 108:0.023445509 109:0.33559152 110:0.33559152 111:0.30931154 112:0.33559152 113:0.33559152 114:0.33559152 115:0.33559152 116:0.33559152 117:0.33559152 118:0.05352008 119:0.065748431 120:0.35141543 121:0.51304656 122:0.51304656 123:0.51304656 124:0.26028433 125:0.049165398 126:0.066185363 127:0.03146166 128:0.50309891 129:0.50309891 130:0.50309891 131:0.47669578 132:0.076398693 133:0.024282614 134:0.01870962 135:0.025394462 136:0.23588409 137:0.21798314 138:0.13620777 139:0.10811637 140:0.17800723 141:0.45562121 142:0.45562121 143:0.45562121 144:0.45562121 145:0.37030962 146:0.37030962 147:0.37030962 148:0.37030962 149:0.37030962 150:0.19075279 151:0.16290316 152:0.3325673 153:0.37030962 154:0.083041213 155:0.29749647 156:0.43351442 157:0.43351442 158:0.43351442 159:0.43351442 160:0.31530547 161:0.15775332 162:0.1556502 163:0.0028038591 164:0.068502501 165:0.28758135 166:0.53638041 167:0.53638041 168:0.53042758 169:0.19901349 170:0.10341901 171:0.013293837 172:0.091385424 173:0.11808302 174:0.23082443 175:0.22197004 176:0.44139481 177:0.4640885 178:0.4640885 179:0.4640885 180:0.17191592 181:0.052568723 182:0.39948505 183:0.51568812 184:0.51568812 185:0.51568812 186:0.15370479 187:0.051412296 188:0.058579754 189:0.070677735 190:0.14857936 191:0.18372166 192:0.25468174 193:0.4770076 194:0.4770076 195:0.4770076 196:0.28122973 197:0.22821862 198:0.24649699 199:0.015683085 200:0.05434953 201:0.56021857 202:0.56021857 203:0.56021857 204:0.21672949 205:0.037608989 206:0.024946937 207:0.025742523 208:0.21626677 209:0.20839466 210:0.21162184 211:0.27998379 212:0.41745946 213:0.41745946 214:0.41745946 215:0.41745946 216:0.29217416 217:0.022190042 218:0.067370713 219:0.2709612 220:0.54766595 221:0.54766595 222:0.54766595 223:0.10876497 224:0.062922344 225:0.021831388 226:0.020998076 227:0.11684192 228:0.26160324 229:0.63722366 230:0.63722366 231:0.30659592 232:0.059124108 233:0.036496956 234:0.01311649 235:0.050668895 236:0.17953077 237:0.57408929 238:0.57408929 239:0.49716428 240:0.19721071 241:0.094658874 242:0.0688283 243:0.023445509 244:0.21072243 245:0.18068005 246:0.060372408 247:0.077471793 248:0.24900478 249:0.46008292 250:0.46008292 251:0.46008292 252:0.46008292 253:0.05352008 254:0.065748431 255:0.35141543 256:0.51304656 257:0.51304656 258:0.51304656 259:0.26028433 260:0.049165398 261:0.066185363 262:0.03146166 263:0.50309891 264:0.50309891 265:0.50309891 266:0.47669578 267:0.076398693 268:0.024282614 269:0.01870962 270:0.025394462 271:0.23588409 272:0.21798314 273:0.13620777 274:0.10811637 275:0.17800723 276:0.45562121 277:0.45562121 278:0.45562121 279:0.45562121 280:0.15399149 281:0.13417491 282:0.20664278 283:0.34657285 284:0.32622489 285:0.45981964 286:0.45981964 287:0.45981964 288:0.22394596 289:0.083041213 290:0.29749647 291:0.43351442 292:0.43351442 293:0.43351442 294:0.43351442 295:0.31530547 296:0.15775332 297:0.1556502 298:0.0028038591 299:0.068502501 300:0.28758135 301:0.53638041 302:0.53638041 303:0.53042758 304:0.19901349 305:0.10341901 306:0.013293837 307:0.091385424 308:0.11808302 309:0.23082443 310:0.22197004 311:0.44139481 312:0.4640885 313:0.4640885 314:0.4640885 315:0.17191592 316:0.097473472 317:0.059354484 318:0.13541888 319:0.41853911 320:0.32452717 321:0.45797235 322:0.45797235 323:0.45797235 324:0.23314005 325:0.14857936 326:0.18372166 327:0.25468174 328:0.4770076 329:0.4770076 330:0.4770076 331:0.28122973 332:0.22821862 333:0.24649699 334:0.015683085 335:0.05434953 336:0.56021857 337:0.56021857 338:0.56021857 339:0.21672949 340:0.037608989 341:0.024946937 342:0.025742523 343:0.21626677 344:0.20839466 345:0.21162184 346:0.27998379 347:0.41745946 348:0.41745946 349:0.41745946 350:0.41745946 351:0.29217416 352:0.23189576 353:0.23131523 354:0.27247557 355:0.26119334 356:0.38636586 357:0.38636586 358:0.38636586 359:0.38636586 360:0.38636586 361:0.020998076 362:0.11684192 363:0.26160324 364:0.63722366 365:0.63722366 366:0.30659592 367:0.059124108 368:0.036496956 369:0.01311649 370:0.050668895 371:0.17953077 372:0.57408929 373:0.57408929 374:0.49716428 375:0.19721071 376:0.094658874 377:0.0688283 378:0.023445509 379:0.21072243 380:0.18068005 381:0.060372408 382:0.077471793 383:0.24900478 384:0.46008292 385:0.46008292 386:0.46008292 387:0.46008292 388:0.32762009 389:0.091223471 390:0.056587271 391:0.06593363 392:0.064565279 393:0.182235 394:0.52730435 395:0.52730435 396:0.52730435 397:0.03146166 398:0.50309891 399:0.50309891 400:0.50309891 401:0.47669578 402:0.076398693 403:0.024282614 404:0.01870962 405:0.025394462 406:0.23588409 407:0.21798314 408:0.13620777 409:0.10811637 410:0.17800723 411:0.45562121 412:0.45562121 413:0.45562121 414:0.45562121 415:0.15399149 416:0.13417491 417:0.20664278 418:0.34657285 419:0.32622489 420:0.45981964 421:0.45981964 422:0.45981964 423:0.22394596 424:0.038808357 425:0.02110851 426:0.038487334 427:0.018513005 428:0.14476283 429:0.56059426 430:0.56760621 431:0.56760621 432:0.10478794 433:0.0028038591 434:0.068502501 435:0.28758135 436:0.53638041 437:0.53638041 438:0.53042758 439:0.19901349 440:0.10341901 441:0.013293837 442:0.091385424 443:0.11808302 444:0.23082443 445:0.22197004 446:0.44139481 447:0.4640885 448:0.4640885 449:0.4640885 450:0.17191592 451:0.097473472 452:0.059354484 453:0.13541888 454:0.41853911 455:0.32452717 456:0.45797235 457:0.45797235 458:0.45797235 459:0.23314005 460:0.03692665 461:0.04076305 462:0.098146386 463:0.10826906 464:0.5073508 465:0.56910527 466:0.56910527 467:0.2369858 468:0.092780605 469:0.015683085 470:0.05434953 471:0.56021857 472:0.56021857 473:0.56021857 474:0.21672949 475:0.037608989 476:0.024946937 477:0.025742523 478:0.21626677 479:0.20839466 480:0.21162184 481:0.27998379 482:0.41745946 483:0.41745946 484:0.41745946 485:0.41745946 486:0.29217416 487:0.23189576 488:0.23131523 489:0.27247557 490:0.26119334 491:0.38636586 492:0.38636586 493:0.38636586 494:0.38636586 495:0.38636586 496:0.12479058 497:0.1452848 498:0.2216325 499:0.41530782 500:0.41530782 501:0.41530782 502:0.41530782 503:0.41530782 504:0.21828184 505:0.050668895 506:0.17953077 507:0.57408929 508:0.57408929 509:0.49716428 510:0.19721071 511:0.094658874 512:0.0688283 513:0.023445509 514:0.21072243 515:0.18068005 516:0.060372408 517:0.077471793 518:0.24900478 519:0.46008292 520:0.46008292 521:0.46008292 522:0.46008292 523:0.32762009 524:0.091223471 525:0.056587271 526:0.06593363 527:0.064565279 528:0.182235 529:0.52730435 530:0.52730435 531:0.52730435 532:0.14114611 533:0.35671002 534:0.37192413 535:0.37192413 536:0.37192413 537:0.37192413 538:0.37192413 539:0.3533802 540:0.18056735 541:0.23588409 542:0.21798314 543:0.13620777 544:0.10811637 545:0.17800723 546:0.45562121 547:0.45562121 548:0.45562121 549:0.45562121 550:0.15399149 551:0.13417491 552:0.20664278 553:0.34657285 554:0.32622489 555:0.45981964 556:0.45981964 557:0.45981964 558:0.22394596 559:0.038808357 560:0.02110851 561:0.038487334 562:0.018513005 563:0.14476283 564:0.56059426 565:0.56760621 566:0.56760621 567:0.10478794 568:0.020089695 569:0.014331935 570:0.0097970599 571:0.04096115 572:0.097983979 573:0.45913711 574:0.58482307 575:0.58482307 576:0.29552281 577:0.091385424 578:0.11808302 579:0.23082443 580:0.22197004 581:0.44139481 582:0.4640885 583:0.4640885 584:0.4640885 585:0.17191592 586:0.097473472 587:0.059354484 588:0.13541888 589:0.41853911 590:0.32452717 591:0.45797235 592:0.45797235 593:0.45797235 594:0.23314005 595:0.03692665 596:0.04076305 597:0.098146386 598:0.10826906 599:0.5073508 600:0.56910527 601:0.56910527 602:0.2369858 603:0.092780605 604:0.0939501 605:0.059101615 606:0.036036421 607:0.19600676 608:0.50777119 609:0.55736959 610:0.55736959 611:0.23564886 612:0.087826967 613:0.21626677 614:0.20839466 615:0.21162184 616:0.27998379 617:0.41745946 618:0.41745946 619:0.41745946 620:0.41745946 621:0.29217416 622:0.23189576 623:0.23131523 624:0.27247557 625:0.26119334 626:0.38636586 627:0.38636586 628:0.38636586 629:0.38636586 630:0.38636586 631:0.12479058 632:0.1452848 633:0.2216325 634:0.41530782 635:0.41530782 636:0.41530782 637:0.41530782 638:0.41530782 639:0.21828184 640:0.071720943 641:0.079636157 642:0.14492802 643:0.31992686 644:0.51920038 645:0.51920038 646:0.51920038 647:0.22192648 648:0.044868268 649:0.21072243 650:0.18068005 651:0.060372408 652:0.077471793 653:0.24900478 654:0.46008292 655:0.46008292 656:0.46008292 657:0.46008292 658:0.32762009 659:0.091223471 660:0.056587271 661:0.06593363 662:0.064565279 663:0.182235 664:0.52730435 665:0.52730435 666:0.52730435 667:0.14114611 668:0.35671002 669:0.37192413 670:0.37192413 671:0.37192413 672:0.37192413 673:0.37192413 674:0.3533802 675:0.18056735 676:0.36463127 677:0.36463127 678:0.21660753 679:0.36463127 680:0.36463127 681:0.23885603 682:0.30765307 683:0.36463127 684:0.36463127 685:0.15399149 686:0.13417491 687:0.20664278 688:0.34657285 689:0.32622489 690:0.45981964 691:0.45981964 692:0.45981964 693:0.22394596 694:0.038808357 695:0.02110851 696:0.038487334 697:0.018513005 698:0.14476283 699:0.56059426 700:0.56760621 701:0.56760621 702:0.10478794 703:0.020089695 704:0.014331935 705:0.0097970599 706:0.04096115 707:0.097983979 708:0.45913711 709:0.58482307 710:0.58482307 711:0.29552281 712:0.33277869 713:0.33277869 714:0.33277869 715:0.33277869 716:0.33277869 717:0.33277869 718:0.33277869 719:0.33277869 720:0.33277869 
0.05255048864067886 1:0.36851111 2:0.36851111 3:0.36851111 4:0.32025957 5:0.18576427 6:0.23801984 7:0.35155115 8:0.36851111 9:0.36851111 10:0.24300796 11:0.56803018 12:0.56803018 13:0.45933676 14:0.17663755 15:0.084610879 16:0.10558574 17:0.03392715 18:0.16825207 19:0.17036882 20:0.29276082 21:0.40462586 22:0.40462586 23:0.40462586 24:0.40462586 25:0.40462586 26:0.22688937 27:0.10551875 28:0.054763306 29:0.11624905 30:0.34798729 31:0.47137967 32:0.47137967 33:0.47137967 34:0.41063383 35:0.13077372 36:0.073248386 37:0.61250293 38:0.61250293 39:0.084808648 40:0.018747726 41:0.0018108024 42:0.0043674894 43:0.013843767 44:0.081815325 45:0.47865748 46:0.52083677 47:0.52083677 48:0.3578583 49:0.10527349 50:0.11098711 51:0.078084417 52:0.038234025 53:0.1482005 54:0.52083677 55:0.65692157 56:0.26015919 57:0.081995808 58:0.072200596 59:0.056146212 60:0.085383646 61:0.084312893 62:0.1821512 63:0.65692157 64:0.65917212 65:0.18123889 66:0.028124165 67:0.018593347 68:0.022176679 69:0.046262596 70:0.091116503 71:0.28193069 72:0.65917212 73:0.1078384 74:0.069820389 75:0.18493314 76:0.30425301 77:0.462138 78:0.462138 79:0.462138 80:0.44598332 81:0.11177691 82:0.44226584 83:0.44226584 84:0.40602109 85:0.16698481 86:0.040721703 87:0.097579345 88:0.096275412 89:0.44226584 90:0.44226584 91:0.55591112 92:0.31175554 93:0.089865215 94:0.02921642 95:0.032500412 96:0.21190694 97:0.24120291 98:0.40757042 99:0.55591112 100:0.63287365 101:0.14056543 102:0.035888731 103:0.051992532 104:0.01458964 105:0.054968432 106:0.17761751 107:0.36618441 108:0.63287365 109:0.41207615 110:0.41207615 111:0.41207615 112:0.41207615 113:0.41207615 114:0.24541357 115:0.25005352 116:0.10842325 117:0.11108323 118:0.36666179 119:0.40775713 120:0.40775713 121:0.40775713 122:0.40775713 123:0.15749559 124:0.30471727 125:0.17630881 126:0.21835738 127:0.3250955 128:0.34772089 129:0.34772089 130:0.34772089 131:0.34772089 132:0.34520152 133:0.34772089 134:0.27741745 135:0.30027506 136:0.028504742 137:0.082016215 138:0.14900583 139:0.22858284 140:0.51294225 141:0.51294225 142:0.45982963 143:0.38830256 144:0.1563441 145:0.24300796 146:0.56803018 147:0.56803018 148:0.45933676 149:0.17663755 150:0.084610879 151:0.10558574 152:0.03392715 153:0.16825207 154:0.17036882 155:0.29276082 156:0.40462586 157:0.40462586 158:0.40462586 159:0.40462586 160:0.40462586 161:0.22688937 162:0.10551875 163:0.054763306 164:0.11624905 165:0.34798729 166:0.47137967 167:0.47137967 168:0.47137967 169:0.41063383 170:0.13077372 171:0.073248386 172:0.11252587 173:0.358367 174:0.39068657 175:0.39068657 176:0.39068657 177:0.39068657 178:0.39068657 179:0.28329039 180:0.10758483 181:0.52083677 182:0.52083677 183:0.3578583 184:0.10527349 185:0.11098711 186:0.078084417 187:0.038234025 188:0.1482005 189:0.52083677 190:0.65692157 191:0.26015919 192:0.081995808 193:0.072200596 194:0.056146212 195:0.085383646 196:0.084312893 197:0.1821512 198:0.65692157 199:0.65917212 200:0.18123889 201:0.028124165 202:0.018593347 203:0.022176679 204:0.046262596 205:0.091116503 206:0.28193069 207:0.65917212 208:0.678186 209:0.11413886 210:0.045043048 211:0.016007524 212:0.026872046 213:0.057000678 214:0.0952949 215:0.21211334 216:0.678186 217:0.44226584 218:0.44226584 219:0.40602109 220:0.16698481 221:0.040721703 222:0.097579345 223:0.096275412 224:0.44226584 225:0.44226584 226:0.55591112 227:0.31175554 228:0.089865215 229:0.02921642 230:0.032500412 231:0.21190694 232:0.24120291 233:0.40757042 234:0.55591112 235:0.63287365 236:0.14056543 237:0.035888731 238:0.051992532 239:0.01458964 240:0.054968432 241:0.17761751 242:0.36618441 243:0.63287365 244:0.66795707 245:0.11127532 246:0.048568841 247:0.0092100771 248:0.021519653 249:0.011449026 250:0.053011652 251:0.28769431 252:0.66795707 253:0.36666179 254:0.40775713 255:0.40775713 256:0.40775713 257:0.40775713 258:0.15749559 259:0.30471727 260:0.17630881 261:0.21835738 262:0.3250955 263:0.34772089 264:0.34772089 265:0.34772089 266:0.34772089 267:0.34520152 268:0.34772089 269:0.27741745 270:0.30027506 271:0.028504742 272:0.082016215 273:0.14900583 274:0.22858284 275:0.51294225 276:0.51294225 277:0.45982963 278:0.38830256 279:0.1563441 280:0.096471392 281:0.14570665 282:0.2601195 283:0.40842292 284:0.40842292 285:0.40842292 286:0.40842292 287:0.40842292 288:0.25233734 289:0.17036882 290:0.29276082 291:0.40462586 292:0.40462586 293:0.40462586 294:0.40462586 295:0.40462586 296:0.22688937 297:0.10551875 298:0.054763306 299:0.11624905 300:0.34798729 301:0.47137967 302:0.47137967 303:0.47137967 304:0.41063383 305:0.13077372 306:0.073248386 307:0.11252587 308:0.358367 309:0.39068657 310:0.39068657 311:0.39068657 312:0.39068657 313:0.39068657 314:0.28329039 315:0.10758483 316:0.19655785 317:0.34432769 318:0.34272653 319:0.096195884 320:0.60719395 321:0.46486586 322:0.26991397 323:0.14501692 324:0.17708044 325:0.65692157 326:0.26015919 327:0.081995808 328:0.072200596 329:0.056146212 330:0.085383646 331:0.084312893 332:0.1821512 333:0.65692157 334:0.65917212 335:0.18123889 336:0.028124165 337:0.018593347 338:0.022176679 339:0.046262596 340:0.091116503 341:0.28193069 342:0.65917212 343:0.678186 344:0.11413886 345:0.045043048 346:0.016007524 347:0.026872046 348:0.057000678 349:0.0952949 350:0.21211334 351:0.678186 352:0.61591399 353:0.42671433 354:0.09541174 355:0.01650298 356:0.018937832 357:0.024359871 358:0.068309031 359:0.19511876 360:0.61591399 361:0.55591112 362:0.31175554 363:0.089865215 364:0.02921642 365:0.032500412 366:0.21190694 367:0.24120291 368:0.40757042 369:0.55591112 370:0.63287365 371:0.14056543 372:0.035888731 373:0.051992532 374:0.01458964 375:0.054968432 376:0.17761751 377:0.36618441 378:0.63287365 379:0.66795707 380:0.11127532 381:0.048568841 382:0.0092100771 383:0.021519653 384:0.011449026 385:0.053011652 386:0.28769431 387:0.66795707 388:0.6882242 389:0.09979593 390:0.043609466 391:0.0040598698 392:0.00048481079 393:0.0020072751 394:0.052992776 395:0.17644987 396:0.6882242 397:0.3250955 398:0.34772089 399:0.34772089 400:0.34772089 401:0.34772089 402:0.34520152 403:0.34772089 404:0.27741745 405:0.30027506 406:0.028504742 407:0.082016215 408:0.14900583 409:0.22858284 410:0.51294225 411:0.51294225 412:0.45982963 413:0.38830256 414:0.1563441 415:0.096471392 416:0.14570665 417:0.2601195 418:0.40842292 419:0.40842292 420:0.40842292 421:0.40842292 422:0.40842292 423:0.25233734 424:0.33394045 425:0.33394045 426:0.33394045 427:0.3233166 428:0.33394045 429:0.33394045 430:0.33394045 431:0.33394045 432:0.33394045 433:0.054763306 434:0.11624905 435:0.34798729 436:0.47137967 437:0.47137967 438:0.47137967 439:0.41063383 440:0.13077372 441:0.073248386 442:0.11252587 443:0.358367 444:0.39068657 445:0.39068657 446:0.39068657 447:0.39068657 448:0.39068657 449:0.28329039 450:0.10758483 451:0.19655785 452:0.34432769 453:0.34272653 454:0.096195884 455:0.60719395 456:0.46486586 457:0.26991397 458:0.14501692 459:0.17708044 460:0.12348612 461:0.2015586 462:0.42602336 463:0.32088134 464:0.46331722 465:0.46331722 466:0.4097409 467:0.20386778 468:0.12751973 469:0.65917212 470:0.18123889 471:0.028124165 472:0.018593347 473:0.022176679 474:0.046262596 475:0.091116503 476:0.28193069 477:0.65917212 478:0.678186 479:0.11413886 480:0.045043048 481:0.016007524 482:0.026872046 483:0.057000678 484:0.0952949 485:0.21211334 486:0.678186 487:0.61591399 488:0.42671433 489:0.09541174 490:0.01650298 491:0.018937832 492:0.024359871 493:0.068309031 494:0.19511876 495:0.61591399 496:0.68431175 497:0.14561288 498:0.06491106 499:0.013175702 500:0.0045723622 501:0.020279726 502:0.052333508 503:0.16686 504:0.68431175 505:0.63287365 506:0.14056543 507:0.035888731 508:0.051992532 509:0.01458964 510:0.054968432 511:0.17761751 512:0.36618441 513:0.63287365 514:0.66795707 515:0.11127532 516:0.048568841 517:0.0092100771 518:0.021519653 519:0.011449026 520:0.053011652 521:0.28769431 522:0.66795707 523:0.6882242 524:0.09979593 525:0.043609466 526:0.0040598698 527:0.00048481079 528:0.0020072751 529:0.052992776 530:0.17644987 531:0.6882242 532:0.6687786 533:0.072064184 534:0.022263907 535:0.0031816463 536:6.630319e-05 537:0.011924 538:0.12277529 539:0.27906778 540:0.6687786 541:0.028504742 542:0.082016215 543:0.14900583 544:0.22858284 545:0.51294225 546:0.51294225 547:0.45982963 548:0.38830256 549:0.1563441 550:0.096471392 551:0.14570665 552:0.2601195 553:0.40842292 554:0.40842292 555:0.40842292 556:0.40842292 557:0.40842292 558:0.25233734 559:0.33394045 560:0.33394045 561:0.33394045 562:0.3233166 563:0.33394045 564:0.33394045 565:0.33394045 566:0.33394045 567:0.33394045 568:0.33277869 569:0.33277869 570:0.33277869 571:0.33277869 572:0.33277869 573:0.33277869 574:0.33277869 575:0.33277869 576:0.33277869 577:0.11252587 578:0.358367 579:0.39068657 580:0.39068657 581:0.39068657 582:0.39068657 583:0.39068657 584:0.28329039 585:0.10758483 586:0.19655785 587:0.34432769 588:0.34272653 589:0.096195884 590:0.60719395 591:0.46486586 592:0.26991397 593:0.14501692 594:0.17708044 595:0.12348612 596:0.2015586 597:0.42602336 598:0.32088134 599:0.46331722 600:0.46331722 601:0.4097409 602:0.20386778 603:0.12751973 604:0.27643135 605:0.18676101 606:0.27464327 607:0.28222361 608:0.38204977 609:0.38204977 610:0.38204977 611:0.38204977 612:0.38204977 613:0.678186 614:0.11413886 615:0.045043048 616:0.016007524 617:0.026872046 618:0.057000678 619:0.0952949 620:0.21211334 621:0.678186 622:0.61591399 623:0.42671433 624:0.09541174 625:0.01650298 626:0.018937832 627:0.024359871 628:0.068309031 629:0.19511876 630:0.61591399 631:0.68431175 632:0.14561288 633:0.06491106 634:0.013175702 635:0.0045723622 636:0.020279726 637:0.052333508 638:0.16686 639:0.68431175 640:0.59671962 641:0.40525019 642:0.085608602 643:0.041576099 644:0.044512548 645:0.10965917 646:0.20871134 647:0.22592312 648:0.59671962 649:0.66795707 650:0.11127532 651:0.048568841 652:0.0092100771 653:0.021519653 654:0.011449026 655:0.053011652 656:0.28769431 657:0.66795707 658:0.6882242 659:0.09979593 660:0.043609466 661:0.0040598698 662:0.00048481079 663:0.0020072751 664:0.052992776 665:0.17644987 666:0.6882242 667:0.6687786 668:0.072064184 669:0.022263907 670:0.0031816463 671:6.630319e-05 672:0.011924 673:0.12277529 674:0.27906778 675:0.6687786 676:0.65703028 677:0.1385123 678:0.14589263 679:0.057454087 680:0.010819341 681:0.052098595 682:0.073888011 683:0.27928632 684:0.65703028 685:0.096471392 686:0.14570665 687:0.2601195 688:0.40842292 689:0.40842292 690:0.40842292 691:0.40842292 692:0.40842292 693:0.25233734 694:0.33394045 695:0.33394045 696:0.33394045 697:0.3233166 698:0.33394045 699:0.33394045 700:0.33394045 701:0.33394045 702:0.33394045 703:0.33277869 704:0.33277869 705:0.33277869 706:0.33277869 707:0.33277869 708:0.33277869 709:0.33277869 710:0.33277869 711:0.33277869 712:0.37329751 713:0.37329751 714:0.37329751 715:0.37329751 716:0.37329751 717:0.34120968 718:0.25596642 719:0.17512251 720:0.29479566 
